digraph Tree {
node [shape=box] ;
0 [label="X[11] <= 44.5\nentropy = 0.3356\nsamples = 199523\nvalue = [187141, 12382]"] ;
1 [label="X[374] <= 0.5\nentropy = 0.0858\nsamples = 122116\nvalue = [120802, 1314]"] ;
0 -> 1 [labeldistance=2.5, labelangle=45, headlabel="True"] ;
2 [label="X[4] <= 5826.5\nentropy = 0.1788\nsamples = 47532\nvalue = [46252, 1280]"] ;
1 -> 2 ;
3 [label="X[6] <= 149.5\nentropy = 0.1536\nsamples = 46948\nvalue = [45906, 1042]"] ;
2 -> 3 ;
4 [label="X[198] <= 0.5\nentropy = 0.1092\nsamples = 41310\nvalue = [40712, 598]"] ;
3 -> 4 ;
5 [label="X[11] <= 21.5\nentropy = 0.062\nsamples = 24118\nvalue = [23943, 175]"] ;
4 -> 5 ;
6 [label="X[2] <= 42.5\nentropy = 0.0349\nsamples = 16125\nvalue = [16066, 59]"] ;
5 -> 6 ;
7 [label="X[0] <= 41.5\nentropy = 0.0312\nsamples = 15909\nvalue = [15858, 51]"] ;
6 -> 7 ;
8 [label="X[191] <= 0.5\nentropy = 0.0138\nsamples = 8043\nvalue = [8033, 10]"] ;
7 -> 8 ;
9 [label="X[6] <= 122.5\nentropy = 0.0104\nsamples = 7744\nvalue = [7737, 7]"] ;
8 -> 9 ;
10 [label="X[113] <= 0.5\nentropy = 0.0091\nsamples = 7730\nvalue = [7724, 6]"] ;
9 -> 10 ;
11 [label="X[11] <= 1.5\nentropy = 0.0065\nsamples = 7549\nvalue = [7545, 4]"] ;
10 -> 11 ;
12 [label="X[156] <= 0.5\nentropy = 0.0123\nsamples = 3663\nvalue = [3659, 4]"] ;
11 -> 12 ;
13 [label="X[277] <= 0.5\nentropy = 0.0096\nsamples = 3654\nvalue = [3651, 3]"] ;
12 -> 13 ;
14 [label="X[232] <= 0.5\nentropy = 0.0068\nsamples = 3633\nvalue = [3631, 2]"] ;
13 -> 14 ;
15 [label="entropy = 0.0\nsamples = 2106\nvalue = [2106, 0]"] ;
14 -> 15 ;
16 [label="X[0] <= 32.5\nentropy = 0.0144\nsamples = 1527\nvalue = [1525, 2]"] ;
14 -> 16 ;
17 [label="entropy = 0.0\nsamples = 787\nvalue = [787, 0]"] ;
16 -> 17 ;
18 [label="X[0] <= 37.5\nentropy = 0.027\nsamples = 740\nvalue = [738, 2]"] ;
16 -> 18 ;
19 [label="X[7] <= 1836.6949\nentropy = 0.0424\nsamples = 434\nvalue = [432, 2]"] ;
18 -> 19 ;
20 [label="X[7] <= 1833.105\nentropy = 0.0619\nsamples = 276\nvalue = [274, 2]"] ;
19 -> 20 ;
21 [label="X[0] <= 33.5\nentropy = 0.0347\nsamples = 275\nvalue = [274, 1]"] ;
20 -> 21 ;
22 [label="X[211] <= 0.5\nentropy = 0.1511\nsamples = 46\nvalue = [45, 1]"] ;
21 -> 22 ;
23 [label="entropy = 0.0\nsamples = 38\nvalue = [38, 0]"] ;
22 -> 23 ;
24 [label="X[7] <= 1012.72\nentropy = 0.5436\nsamples = 8\nvalue = [7, 1]"] ;
22 -> 24 ;
25 [label="X[17] <= 0.5\nentropy = 0.9183\nsamples = 3\nvalue = [2, 1]"] ;
24 -> 25 ;
26 [label="entropy = 0.0\nsamples = 2\nvalue = [2, 0]"] ;
25 -> 26 ;
27 [label="entropy = 0.0\nsamples = 1\nvalue = [0, 1]"] ;
25 -> 27 ;
28 [label="entropy = 0.0\nsamples = 5\nvalue = [5, 0]"] ;
24 -> 28 ;
29 [label="entropy = 0.0\nsamples = 229\nvalue = [229, 0]"] ;
21 -> 29 ;
30 [label="entropy = 0.0\nsamples = 1\nvalue = [0, 1]"] ;
20 -> 30 ;
31 [label="entropy = 0.0\nsamples = 158\nvalue = [158, 0]"] ;
19 -> 31 ;
32 [label="entropy = 0.0\nsamples = 306\nvalue = [306, 0]"] ;
18 -> 32 ;
33 [label="X[247] <= 0.5\nentropy = 0.2762\nsamples = 21\nvalue = [20, 1]"] ;
13 -> 33 ;
34 [label="entropy = 0.0\nsamples = 20\nvalue = [20, 0]"] ;
33 -> 34 ;
35 [label="entropy = 0.0\nsamples = 1\nvalue = [0, 1]"] ;
33 -> 35 ;
36 [label="X[7] <= 3967.4648\nentropy = 0.5033\nsamples = 9\nvalue = [8, 1]"] ;
12 -> 36 ;
37 [label="entropy = 0.0\nsamples = 8\nvalue = [8, 0]"] ;
36 -> 37 ;
38 [label="entropy = 0.0\nsamples = 1\nvalue = [0, 1]"] ;
36 -> 38 ;
39 [label="entropy = 0.0\nsamples = 3886\nvalue = [3886, 0]"] ;
11 -> 39 ;
40 [label="X[219] <= 0.5\nentropy = 0.0877\nsamples = 181\nvalue = [179, 2]"] ;
10 -> 40 ;
41 [label="entropy = 0.0\nsamples = 161\nvalue = [161, 0]"] ;
40 -> 41 ;
42 [label="X[236] <= 0.5\nentropy = 0.469\nsamples = 20\nvalue = [18, 2]"] ;
40 -> 42 ;
43 [label="X[7] <= 835.775\nentropy = 0.2975\nsamples = 19\nvalue = [18, 1]"] ;
42 -> 43 ;
44 [label="X[256] <= 0.5\nentropy = 1.0\nsamples = 2\nvalue = [1, 1]"] ;
43 -> 44 ;
45 [label="entropy = 0.0\nsamples = 1\nvalue = [0, 1]"] ;
44 -> 45 ;
46 [label="entropy = 0.0\nsamples = 1\nvalue = [1, 0]"] ;
44 -> 46 ;
47 [label="entropy = 0.0\nsamples = 17\nvalue = [17, 0]"] ;
43 -> 47 ;
48 [label="entropy = 0.0\nsamples = 1\nvalue = [0, 1]"] ;
42 -> 48 ;
49 [label="X[275] <= 0.5\nentropy = 0.3712\nsamples = 14\nvalue = [13, 1]"] ;
9 -> 49 ;
50 [label="entropy = 0.0\nsamples = 13\nvalue = [13, 0]"] ;
49 -> 50 ;
51 [label="entropy = 0.0\nsamples = 1\nvalue = [0, 1]"] ;
49 -> 51 ;
52 [label="X[218] <= 0.5\nentropy = 0.081\nsamples = 299\nvalue = [296, 3]"] ;
8 -> 52 ;
53 [label="entropy = 0.0\nsamples = 218\nvalue = [218, 0]"] ;
52 -> 53 ;
54 [label="X[250] <= 0.5\nentropy = 0.2285\nsamples = 81\nvalue = [78, 3]"] ;
52 -> 54 ;
55 [label="X[282] <= 0.5\nentropy = 0.1133\nsamples = 66\nvalue = [65, 1]"] ;
54 -> 55 ;
56 [label="entropy = 0.0\nsamples = 54\nvalue = [54, 0]"] ;
55 -> 56 ;
57 [label="X[9] <= 1.5\nentropy = 0.4138\nsamples = 12\nvalue = [11, 1]"] ;
55 -> 57 ;
58 [label="entropy = 0.0\nsamples = 10\nvalue = [10, 0]"] ;
57 -> 58 ;
59 [label="X[11] <= 16.5\nentropy = 1.0\nsamples = 2\nvalue = [1, 1]"] ;
57 -> 59 ;
60 [label="entropy = 0.0\nsamples = 1\nvalue = [1, 0]"] ;
59 -> 60 ;
61 [label="entropy = 0.0\nsamples = 1\nvalue = [0, 1]"] ;
59 -> 61 ;
62 [label="X[265] <= 0.5\nentropy = 0.5665\nsamples = 15\nvalue = [13, 2]"] ;
54 -> 62 ;
63 [label="entropy = 0.0\nsamples = 10\nvalue = [10, 0]"] ;
62 -> 63 ;
64 [label="X[0] <= 24.5\nentropy = 0.971\nsamples = 5\nvalue = [3, 2]"] ;
62 -> 64 ;
65 [label="entropy = 0.0\nsamples = 2\nvalue = [2, 0]"] ;
64 -> 65 ;
66 [label="X[294] <= 0.5\nentropy = 0.9183\nsamples = 3\nvalue = [1, 2]"] ;
64 -> 66 ;
67 [label="entropy = 0.0\nsamples = 1\nvalue = [1, 0]"] ;
66 -> 67 ;
68 [label="entropy = 0.0\nsamples = 2\nvalue = [0, 2]"] ;
66 -> 68 ;
69 [label="X[318] <= 0.5\nentropy = 0.047\nsamples = 7866\nvalue = [7825, 41]"] ;
7 -> 69 ;
70 [label="X[211] <= 0.5\nentropy = 0.0332\nsamples = 6948\nvalue = [6924, 24]"] ;
69 -> 70 ;
71 [label="X[11] <= 11.5\nentropy = 0.0264\nsamples = 6437\nvalue = [6420, 17]"] ;
70 -> 71 ;
72 [label="X[7] <= 5075.2949\nentropy = 0.0206\nsamples = 6076\nvalue = [6064, 12]"] ;
71 -> 72 ;
73 [label="X[5] <= 1785.0\nentropy = 0.0177\nsamples = 6048\nvalue = [6038, 10]"] ;
72 -> 73 ;
74 [label="X[372] <= 0.5\nentropy = 0.0161\nsamples = 6042\nvalue = [6033, 9]"] ;
73 -> 74 ;
75 [label="X[119] <= 0.5\nentropy = 0.0274\nsamples = 3261\nvalue = [3252, 9]"] ;
74 -> 75 ;
76 [label="X[216] <= 0.5\nentropy = 0.0248\nsamples = 3259\nvalue = [3251, 8]"] ;
75 -> 76 ;
77 [label="X[7] <= 317.46\nentropy = 0.0197\nsamples = 3193\nvalue = [3187, 6]"] ;
76 -> 77 ;
78 [label="X[7] <= 315.79\nentropy = 0.1812\nsamples = 73\nvalue = [71, 2]"] ;
77 -> 78 ;
79 [label="X[209] <= 0.5\nentropy = 0.1056\nsamples = 72\nvalue = [71, 1]"] ;
78 -> 79 ;
80 [label="entropy = 0.0\nsamples = 66\nvalue = [66, 0]"] ;
79 -> 80 ;
81 [label="X[0] <= 68.0\nentropy = 0.65\nsamples = 6\nvalue = [5, 1]"] ;
79 -> 81 ;
82 [label="entropy = 0.0\nsamples = 4\nvalue = [4, 0]"] ;
81 -> 82 ;
83 [label="X[7] <= 240.045\nentropy = 1.0\nsamples = 2\nvalue = [1, 1]"] ;
81 -> 83 ;
84 [label="entropy = 0.0\nsamples = 1\nvalue = [1, 0]"] ;
83 -> 84 ;
85 [label="entropy = 0.0\nsamples = 1\nvalue = [0, 1]"] ;
83 -> 85 ;
86 [label="entropy = 0.0\nsamples = 1\nvalue = [0, 1]"] ;
78 -> 86 ;
87 [label="X[60] <= 0.5\nentropy = 0.0142\nsamples = 3120\nvalue = [3116, 4]"] ;
77 -> 87 ;
88 [label="X[0] <= 80.5\nentropy = 0.0111\nsamples = 3105\nvalue = [3102, 3]"] ;
87 -> 88 ;
89 [label="X[7] <= 1036.575\nentropy = 0.0046\nsamples = 2821\nvalue = [2820, 1]"] ;
88 -> 89 ;
90 [label="X[7] <= 1035.9751\nentropy = 0.0182\nsamples = 586\nvalue = [585, 1]"] ;
89 -> 90 ;
91 [label="entropy = 0.0\nsamples = 584\nvalue = [584, 0]"] ;
90 -> 91 ;
92 [label="entropy = 1.0\nsamples = 2\nvalue = [1, 1]"] ;
90 -> 92 ;
93 [label="entropy = 0.0\nsamples = 2235\nvalue = [2235, 0]"] ;
89 -> 93 ;
94 [label="X[214] <= 0.5\nentropy = 0.0605\nsamples = 284\nvalue = [282, 2]"] ;
88 -> 94 ;
95 [label="entropy = 0.0\nsamples = 178\nvalue = [178, 0]"] ;
94 -> 95 ;
96 [label="X[12] <= 94.5\nentropy = 0.135\nsamples = 106\nvalue = [104, 2]"] ;
94 -> 96 ;
97 [label="entropy = 0.0\nsamples = 62\nvalue = [62, 0]"] ;
96 -> 97 ;
98 [label="X[7] <= 869.88\nentropy = 0.2668\nsamples = 44\nvalue = [42, 2]"] ;
96 -> 98 ;
99 [label="X[67] <= 0.5\nentropy = 1.0\nsamples = 2\nvalue = [1, 1]"] ;
98 -> 99 ;
100 [label="entropy = 0.0\nsamples = 1\nvalue = [0, 1]"] ;
99 -> 100 ;
101 [label="entropy = 0.0\nsamples = 1\nvalue = [1, 0]"] ;
99 -> 101 ;
102 [label="X[7] <= 3009.9102\nentropy = 0.1623\nsamples = 42\nvalue = [41, 1]"] ;
98 -> 102 ;
103 [label="entropy = 0.0\nsamples = 37\nvalue = [37, 0]"] ;
102 -> 103 ;
104 [label="X[7] <= 3212.675\nentropy = 0.7219\nsamples = 5\nvalue = [4, 1]"] ;
102 -> 104 ;
105 [label="entropy = 0.0\nsamples = 1\nvalue = [0, 1]"] ;
104 -> 105 ;
106 [label="entropy = 0.0\nsamples = 4\nvalue = [4, 0]"] ;
104 -> 106 ;
107 [label="X[7] <= 3583.5151\nentropy = 0.3534\nsamples = 15\nvalue = [14, 1]"] ;
87 -> 107 ;
108 [label="entropy = 0.0\nsamples = 13\nvalue = [13, 0]"] ;
107 -> 108 ;
109 [label="X[7] <= 4074.52\nentropy = 1.0\nsamples = 2\nvalue = [1, 1]"] ;
107 -> 109 ;
110 [label="entropy = 0.0\nsamples = 1\nvalue = [0, 1]"] ;
109 -> 110 ;
111 [label="entropy = 0.0\nsamples = 1\nvalue = [1, 0]"] ;
109 -> 111 ;
112 [label="X[0] <= 69.5\nentropy = 0.1959\nsamples = 66\nvalue = [64, 2]"] ;
76 -> 112 ;
113 [label="X[230] <= 0.5\nentropy = 0.4022\nsamples = 25\nvalue = [23, 2]"] ;
112 -> 113 ;
114 [label="entropy = 0.0\nsamples = 17\nvalue = [17, 0]"] ;
113 -> 114 ;
115 [label="X[0] <= 65.5\nentropy = 0.8113\nsamples = 8\nvalue = [6, 2]"] ;
113 -> 115 ;
116 [label="entropy = 0.0\nsamples = 3\nvalue = [3, 0]"] ;
115 -> 116 ;
117 [label="X[110] <= 0.5\nentropy = 0.971\nsamples = 5\nvalue = [3, 2]"] ;
115 -> 117 ;
118 [label="entropy = 0.0\nsamples = 1\nvalue = [1, 0]"] ;
117 -> 118 ;
119 [label="X[304] <= 0.5\nentropy = 1.0\nsamples = 4\nvalue = [2, 2]"] ;
117 -> 119 ;
120 [label="entropy = 0.0\nsamples = 1\nvalue = [1, 0]"] ;
119 -> 120 ;
121 [label="X[7] <= 2265.98\nentropy = 0.9183\nsamples = 3\nvalue = [1, 2]"] ;
119 -> 121 ;
122 [label="entropy = 0.0\nsamples = 2\nvalue = [0, 2]"] ;
121 -> 122 ;
123 [label="entropy = 0.0\nsamples = 1\nvalue = [1, 0]"] ;
121 -> 123 ;
124 [label="entropy = 0.0\nsamples = 41\nvalue = [41, 0]"] ;
112 -> 124 ;
125 [label="X[292] <= 0.5\nentropy = 1.0\nsamples = 2\nvalue = [1, 1]"] ;
75 -> 125 ;
126 [label="entropy = 0.0\nsamples = 1\nvalue = [0, 1]"] ;
125 -> 126 ;
127 [label="entropy = 0.0\nsamples = 1\nvalue = [1, 0]"] ;
125 -> 127 ;
128 [label="entropy = 0.0\nsamples = 2781\nvalue = [2781, 0]"] ;
74 -> 128 ;
129 [label="X[124] <= 0.5\nentropy = 0.65\nsamples = 6\nvalue = [5, 1]"] ;
73 -> 129 ;
130 [label="entropy = 0.0\nsamples = 5\nvalue = [5, 0]"] ;
129 -> 130 ;
131 [label="entropy = 0.0\nsamples = 1\nvalue = [0, 1]"] ;
129 -> 131 ;
132 [label="X[0] <= 75.0\nentropy = 0.3712\nsamples = 28\nvalue = [26, 2]"] ;
72 -> 132 ;
133 [label="entropy = 0.0\nsamples = 23\nvalue = [23, 0]"] ;
132 -> 133 ;
134 [label="X[214] <= 0.5\nentropy = 0.971\nsamples = 5\nvalue = [3, 2]"] ;
132 -> 134 ;
135 [label="entropy = 0.0\nsamples = 1\nvalue = [0, 1]"] ;
134 -> 135 ;
136 [label="X[0] <= 78.5\nentropy = 0.8113\nsamples = 4\nvalue = [3, 1]"] ;
134 -> 136 ;
137 [label="entropy = 0.0\nsamples = 1\nvalue = [0, 1]"] ;
136 -> 137 ;
138 [label="entropy = 0.0\nsamples = 3\nvalue = [3, 0]"] ;
136 -> 138 ;
139 [label="X[6] <= 47.5\nentropy = 0.1054\nsamples = 361\nvalue = [356, 5]"] ;
71 -> 139 ;
140 [label="X[233] <= 0.5\nentropy = 0.0515\nsamples = 344\nvalue = [342, 2]"] ;
139 -> 140 ;
141 [label="X[305] <= 0.5\nentropy = 0.029\nsamples = 340\nvalue = [339, 1]"] ;
140 -> 141 ;
142 [label="entropy = 0.0\nsamples = 334\nvalue = [334, 0]"] ;
141 -> 142 ;
143 [label="X[266] <= 0.5\nentropy = 0.65\nsamples = 6\nvalue = [5, 1]"] ;
141 -> 143 ;
144 [label="entropy = 0.0\nsamples = 5\nvalue = [5, 0]"] ;
143 -> 144 ;
145 [label="entropy = 0.0\nsamples = 1\nvalue = [0, 1]"] ;
143 -> 145 ;
146 [label="X[7] <= 1781.4449\nentropy = 0.8113\nsamples = 4\nvalue = [3, 1]"] ;
140 -> 146 ;
147 [label="entropy = 0.0\nsamples = 3\nvalue = [3, 0]"] ;
146 -> 147 ;
148 [label="entropy = 0.0\nsamples = 1\nvalue = [0, 1]"] ;
146 -> 148 ;
149 [label="X[8] <= 5.5\nentropy = 0.6723\nsamples = 17\nvalue = [14, 3]"] ;
139 -> 149 ;
150 [label="entropy = 0.0\nsamples = 11\nvalue = [11, 0]"] ;
149 -> 150 ;
151 [label="X[218] <= 0.5\nentropy = 1.0\nsamples = 6\nvalue = [3, 3]"] ;
149 -> 151 ;
152 [label="entropy = 0.0\nsamples = 3\nvalue = [3, 0]"] ;
151 -> 152 ;
153 [label="entropy = 0.0\nsamples = 3\nvalue = [0, 3]"] ;
151 -> 153 ;
154 [label="X[330] <= 0.5\nentropy = 0.1044\nsamples = 511\nvalue = [504, 7]"] ;
70 -> 154 ;
155 [label="X[0] <= 79.5\nentropy = 0.0926\nsamples = 508\nvalue = [502, 6]"] ;
154 -> 155 ;
156 [label="X[7] <= 1376.74\nentropy = 0.0687\nsamples = 487\nvalue = [483, 4]"] ;
155 -> 156 ;
157 [label="entropy = 0.0\nsamples = 192\nvalue = [192, 0]"] ;
156 -> 157 ;
158 [label="X[7] <= 1384.78\nentropy = 0.1036\nsamples = 295\nvalue = [291, 4]"] ;
156 -> 158 ;
159 [label="entropy = 0.0\nsamples = 1\nvalue = [0, 1]"] ;
158 -> 159 ;
160 [label="X[24] <= 0.5\nentropy = 0.0821\nsamples = 294\nvalue = [291, 3]"] ;
158 -> 160 ;
161 [label="X[7] <= 1523.4399\nentropy = 0.0594\nsamples = 290\nvalue = [288, 2]"] ;
160 -> 161 ;
162 [label="X[7] <= 1517.39\nentropy = 0.258\nsamples = 23\nvalue = [22, 1]"] ;
161 -> 162 ;
163 [label="entropy = 0.0\nsamples = 22\nvalue = [22, 0]"] ;
162 -> 163 ;
164 [label="entropy = 0.0\nsamples = 1\nvalue = [0, 1]"] ;
162 -> 164 ;
165 [label="X[0] <= 68.5\nentropy = 0.0356\nsamples = 267\nvalue = [266, 1]"] ;
161 -> 165 ;
166 [label="entropy = 0.0\nsamples = 216\nvalue = [216, 0]"] ;
165 -> 166 ;
167 [label="X[0] <= 69.5\nentropy = 0.1392\nsamples = 51\nvalue = [50, 1]"] ;
165 -> 167 ;
168 [label="X[7] <= 2803.1699\nentropy = 0.65\nsamples = 6\nvalue = [5, 1]"] ;
167 -> 168 ;
169 [label="entropy = 0.0\nsamples = 4\nvalue = [4, 0]"] ;
168 -> 169 ;
170 [label="X[7] <= 3646.47\nentropy = 1.0\nsamples = 2\nvalue = [1, 1]"] ;
168 -> 170 ;
171 [label="entropy = 0.0\nsamples = 1\nvalue = [0, 1]"] ;
170 -> 171 ;
172 [label="entropy = 0.0\nsamples = 1\nvalue = [1, 0]"] ;
170 -> 172 ;
173 [label="entropy = 0.0\nsamples = 45\nvalue = [45, 0]"] ;
167 -> 173 ;
174 [label="X[302] <= 0.5\nentropy = 0.8113\nsamples = 4\nvalue = [3, 1]"] ;
160 -> 174 ;
175 [label="entropy = 0.0\nsamples = 3\nvalue = [3, 0]"] ;
174 -> 175 ;
176 [label="entropy = 0.0\nsamples = 1\nvalue = [0, 1]"] ;
174 -> 176 ;
177 [label="X[0] <= 82.0\nentropy = 0.4537\nsamples = 21\nvalue = [19, 2]"] ;
155 -> 177 ;
178 [label="X[7] <= 866.8\nentropy = 0.9183\nsamples = 6\nvalue = [4, 2]"] ;
177 -> 178 ;
179 [label="entropy = 0.0\nsamples = 1\nvalue = [0, 1]"] ;
178 -> 179 ;
180 [label="X[7] <= 1724.385\nentropy = 0.7219\nsamples = 5\nvalue = [4, 1]"] ;
178 -> 180 ;
181 [label="entropy = 0.0\nsamples = 3\nvalue = [3, 0]"] ;
180 -> 181 ;
182 [label="X[7] <= 1835.9399\nentropy = 1.0\nsamples = 2\nvalue = [1, 1]"] ;
180 -> 182 ;
183 [label="entropy = 0.0\nsamples = 1\nvalue = [0, 1]"] ;
182 -> 183 ;
184 [label="entropy = 0.0\nsamples = 1\nvalue = [1, 0]"] ;
182 -> 184 ;
185 [label="entropy = 0.0\nsamples = 15\nvalue = [15, 0]"] ;
177 -> 185 ;
186 [label="X[0] <= 50.5\nentropy = 0.9183\nsamples = 3\nvalue = [2, 1]"] ;
154 -> 186 ;
187 [label="entropy = 0.0\nsamples = 1\nvalue = [0, 1]"] ;
186 -> 187 ;
188 [label="entropy = 0.0\nsamples = 2\nvalue = [2, 0]"] ;
186 -> 188 ;
189 [label="X[292] <= 0.5\nentropy = 0.133\nsamples = 918\nvalue = [901, 17]"] ;
69 -> 189 ;
190 [label="entropy = 0.0\nsamples = 220\nvalue = [220, 0]"] ;
189 -> 190 ;
191 [label="X[245] <= 0.5\nentropy = 0.1652\nsamples = 698\nvalue = [681, 17]"] ;
189 -> 191 ;
192 [label="X[36] <= 0.5\nentropy = 0.1508\nsamples = 692\nvalue = [677, 15]"] ;
191 -> 192 ;
193 [label="X[304] <= 0.5\nentropy = 0.1358\nsamples = 684\nvalue = [671, 13]"] ;
192 -> 193 ;
194 [label="entropy = 0.0\nsamples = 87\nvalue = [87, 0]"] ;
193 -> 194 ;
195 [label="X[311] <= 0.5\nentropy = 0.1513\nsamples = 597\nvalue = [584, 13]"] ;
193 -> 195 ;
196 [label="X[0] <= 62.5\nentropy = 0.1426\nsamples = 594\nvalue = [582, 12]"] ;
195 -> 196 ;
197 [label="X[7] <= 3688.1948\nentropy = 0.0452\nsamples = 201\nvalue = [200, 1]"] ;
196 -> 197 ;
198 [label="entropy = 0.0\nsamples = 188\nvalue = [188, 0]"] ;
197 -> 198 ;
199 [label="X[7] <= 3777.5698\nentropy = 0.3912\nsamples = 13\nvalue = [12, 1]"] ;
197 -> 199 ;
200 [label="entropy = 0.0\nsamples = 1\nvalue = [0, 1]"] ;
199 -> 200 ;
201 [label="entropy = 0.0\nsamples = 12\nvalue = [12, 0]"] ;
199 -> 201 ;
202 [label="X[250] <= 0.5\nentropy = 0.1842\nsamples = 393\nvalue = [382, 11]"] ;
196 -> 202 ;
203 [label="X[239] <= 0.5\nentropy = 0.1011\nsamples = 228\nvalue = [225, 3]"] ;
202 -> 203 ;
204 [label="X[179] <= 0.5\nentropy = 0.0733\nsamples = 225\nvalue = [223, 2]"] ;
203 -> 204 ;
205 [label="X[0] <= 66.5\nentropy = 0.0416\nsamples = 222\nvalue = [221, 1]"] ;
204 -> 205 ;
206 [label="X[214] <= 0.5\nentropy = 0.1594\nsamples = 43\nvalue = [42, 1]"] ;
205 -> 206 ;
207 [label="entropy = 0.0\nsamples = 31\nvalue = [31, 0]"] ;
206 -> 207 ;
208 [label="X[7] <= 1100.865\nentropy = 0.4138\nsamples = 12\nvalue = [11, 1]"] ;
206 -> 208 ;
209 [label="X[7] <= 1010.72\nentropy = 0.9183\nsamples = 3\nvalue = [2, 1]"] ;
208 -> 209 ;
210 [label="entropy = 0.0\nsamples = 2\nvalue = [2, 0]"] ;
209 -> 210 ;
211 [label="entropy = 0.0\nsamples = 1\nvalue = [0, 1]"] ;
209 -> 211 ;
212 [label="entropy = 0.0\nsamples = 9\nvalue = [9, 0]"] ;
208 -> 212 ;
213 [label="entropy = 0.0\nsamples = 179\nvalue = [179, 0]"] ;
205 -> 213 ;
214 [label="X[0] <= 80.5\nentropy = 0.9183\nsamples = 3\nvalue = [2, 1]"] ;
204 -> 214 ;
215 [label="entropy = 0.0\nsamples = 2\nvalue = [2, 0]"] ;
214 -> 215 ;
216 [label="entropy = 0.0\nsamples = 1\nvalue = [0, 1]"] ;
214 -> 216 ;
217 [label="X[214] <= 0.5\nentropy = 0.9183\nsamples = 3\nvalue = [2, 1]"] ;
203 -> 217 ;
218 [label="entropy = 0.0\nsamples = 2\nvalue = [2, 0]"] ;
217 -> 218 ;
219 [label="entropy = 0.0\nsamples = 1\nvalue = [0, 1]"] ;
217 -> 219 ;
220 [label="X[213] <= 0.5\nentropy = 0.2799\nsamples = 165\nvalue = [157, 8]"] ;
202 -> 220 ;
221 [label="X[0] <= 73.5\nentropy = 0.2545\nsamples = 164\nvalue = [157, 7]"] ;
220 -> 221 ;
222 [label="X[0] <= 65.5\nentropy = 0.1321\nsamples = 109\nvalue = [107, 2]"] ;
221 -> 222 ;
223 [label="X[7] <= 409.735\nentropy = 0.316\nsamples = 35\nvalue = [33, 2]"] ;
222 -> 223 ;
224 [label="X[7] <= 322.61\nentropy = 1.0\nsamples = 2\nvalue = [1, 1]"] ;
223 -> 224 ;
225 [label="entropy = 0.0\nsamples = 1\nvalue = [1, 0]"] ;
224 -> 225 ;
226 [label="entropy = 0.0\nsamples = 1\nvalue = [0, 1]"] ;
224 -> 226 ;
227 [label="X[216] <= 0.5\nentropy = 0.1959\nsamples = 33\nvalue = [32, 1]"] ;
223 -> 227 ;
228 [label="entropy = 0.0\nsamples = 30\nvalue = [30, 0]"] ;
227 -> 228 ;
229 [label="X[228] <= 0.5\nentropy = 0.9183\nsamples = 3\nvalue = [2, 1]"] ;
227 -> 229 ;
230 [label="entropy = 0.0\nsamples = 2\nvalue = [2, 0]"] ;
229 -> 230 ;
231 [label="entropy = 0.0\nsamples = 1\nvalue = [0, 1]"] ;
229 -> 231 ;
232 [label="entropy = 0.0\nsamples = 74\nvalue = [74, 0]"] ;
222 -> 232 ;
233 [label="X[7] <= 2045.855\nentropy = 0.4395\nsamples = 55\nvalue = [50, 5]"] ;
221 -> 233 ;
234 [label="X[206] <= 0.5\nentropy = 0.2499\nsamples = 48\nvalue = [46, 2]"] ;
233 -> 234 ;
235 [label="X[218] <= 0.5\nentropy = 0.1511\nsamples = 46\nvalue = [45, 1]"] ;
234 -> 235 ;
236 [label="entropy = 0.0\nsamples = 39\nvalue = [39, 0]"] ;
235 -> 236 ;
237 [label="X[7] <= 1445.3501\nentropy = 0.5917\nsamples = 7\nvalue = [6, 1]"] ;
235 -> 237 ;
238 [label="entropy = 0.0\nsamples = 4\nvalue = [4, 0]"] ;
237 -> 238 ;
239 [label="X[7] <= 1584.5601\nentropy = 0.9183\nsamples = 3\nvalue = [2, 1]"] ;
237 -> 239 ;
240 [label="entropy = 0.0\nsamples = 1\nvalue = [0, 1]"] ;
239 -> 240 ;
241 [label="entropy = 0.0\nsamples = 2\nvalue = [2, 0]"] ;
239 -> 241 ;
242 [label="X[201] <= 0.5\nentropy = 1.0\nsamples = 2\nvalue = [1, 1]"] ;
234 -> 242 ;
243 [label="entropy = 0.0\nsamples = 1\nvalue = [1, 0]"] ;
242 -> 243 ;
244 [label="entropy = 0.0\nsamples = 1\nvalue = [0, 1]"] ;
242 -> 244 ;
245 [label="X[214] <= 0.5\nentropy = 0.9852\nsamples = 7\nvalue = [4, 3]"] ;
233 -> 245 ;
246 [label="entropy = 0.0\nsamples = 2\nvalue = [0, 2]"] ;
245 -> 246 ;
247 [label="X[373] <= 0.5\nentropy = 0.7219\nsamples = 5\nvalue = [4, 1]"] ;
245 -> 247 ;
248 [label="entropy = 0.0\nsamples = 4\nvalue = [4, 0]"] ;
247 -> 248 ;
249 [label="entropy = 0.0\nsamples = 1\nvalue = [0, 1]"] ;
247 -> 249 ;
250 [label="entropy = 0.0\nsamples = 1\nvalue = [0, 1]"] ;
220 -> 250 ;
251 [label="X[29] <= 0.5\nentropy = 0.9183\nsamples = 3\nvalue = [2, 1]"] ;
195 -> 251 ;
252 [label="entropy = 0.0\nsamples = 2\nvalue = [2, 0]"] ;
251 -> 252 ;
253 [label="entropy = 0.0\nsamples = 1\nvalue = [0, 1]"] ;
251 -> 253 ;
254 [label="X[14] <= 0.5\nentropy = 0.8113\nsamples = 8\nvalue = [6, 2]"] ;
192 -> 254 ;
255 [label="X[218] <= 0.5\nentropy = 1.0\nsamples = 4\nvalue = [2, 2]"] ;
254 -> 255 ;
256 [label="entropy = 0.0\nsamples = 2\nvalue = [0, 2]"] ;
255 -> 256 ;
257 [label="entropy = 0.0\nsamples = 2\nvalue = [2, 0]"] ;
255 -> 257 ;
258 [label="entropy = 0.0\nsamples = 4\nvalue = [4, 0]"] ;
254 -> 258 ;
259 [label="X[0] <= 57.0\nentropy = 0.9183\nsamples = 6\nvalue = [4, 2]"] ;
191 -> 259 ;
260 [label="entropy = 0.0\nsamples = 1\nvalue = [0, 1]"] ;
259 -> 260 ;
261 [label="X[6] <= 9.5\nentropy = 0.7219\nsamples = 5\nvalue = [4, 1]"] ;
259 -> 261 ;
262 [label="entropy = 0.0\nsamples = 4\nvalue = [4, 0]"] ;
261 -> 262 ;
263 [label="entropy = 0.0\nsamples = 1\nvalue = [0, 1]"] ;
261 -> 263 ;
264 [label="X[7] <= 1603.145\nentropy = 0.2285\nsamples = 216\nvalue = [208, 8]"] ;
6 -> 264 ;
265 [label="X[11] <= 7.0\nentropy = 0.3598\nsamples = 117\nvalue = [109, 8]"] ;
264 -> 265 ;
266 [label="entropy = 0.0\nsamples = 50\nvalue = [50, 0]"] ;
265 -> 266 ;
267 [label="X[372] <= 0.5\nentropy = 0.5276\nsamples = 67\nvalue = [59, 8]"] ;
265 -> 267 ;
268 [label="X[5] <= 1930.0\nentropy = 0.1537\nsamples = 45\nvalue = [44, 1]"] ;
267 -> 268 ;
269 [label="entropy = 0.0\nsamples = 44\nvalue = [44, 0]"] ;
268 -> 269 ;
270 [label="entropy = 0.0\nsamples = 1\nvalue = [0, 1]"] ;
268 -> 270 ;
271 [label="X[24] <= 0.5\nentropy = 0.9024\nsamples = 22\nvalue = [15, 7]"] ;
267 -> 271 ;
272 [label="X[317] <= 0.5\nentropy = 0.5665\nsamples = 15\nvalue = [13, 2]"] ;
271 -> 272 ;
273 [label="X[243] <= 0.5\nentropy = 1.0\nsamples = 4\nvalue = [2, 2]"] ;
272 -> 273 ;
274 [label="entropy = 0.0\nsamples = 2\nvalue = [0, 2]"] ;
273 -> 274 ;
275 [label="entropy = 0.0\nsamples = 2\nvalue = [2, 0]"] ;
273 -> 275 ;
276 [label="entropy = 0.0\nsamples = 11\nvalue = [11, 0]"] ;
272 -> 276 ;
277 [label="X[0] <= 47.5\nentropy = 0.8631\nsamples = 7\nvalue = [2, 5]"] ;
271 -> 277 ;
278 [label="entropy = 0.0\nsamples = 5\nvalue = [0, 5]"] ;
277 -> 278 ;
279 [label="entropy = 0.0\nsamples = 2\nvalue = [2, 0]"] ;
277 -> 279 ;
280 [label="entropy = 0.0\nsamples = 99\nvalue = [99, 0]"] ;
264 -> 280 ;
281 [label="X[2] <= 18.5\nentropy = 0.1094\nsamples = 7993\nvalue = [7877, 116]"] ;
5 -> 281 ;
282 [label="X[0] <= 21.5\nentropy = 0.1919\nsamples = 2644\nvalue = [2566, 78]"] ;
281 -> 282 ;
283 [label="entropy = 0.0\nsamples = 444\nvalue = [444, 0]"] ;
282 -> 283 ;
284 [label="X[5] <= 2218.0\nentropy = 0.221\nsamples = 2200\nvalue = [2122, 78]"] ;
282 -> 284 ;
285 [label="X[0] <= 38.5\nentropy = 0.2127\nsamples = 2195\nvalue = [2121, 74]"] ;
284 -> 285 ;
286 [label="X[266] <= 0.5\nentropy = 0.1472\nsamples = 1236\nvalue = [1210, 26]"] ;
285 -> 286 ;
287 [label="X[357] <= 0.5\nentropy = 0.1291\nsamples = 1177\nvalue = [1156, 21]"] ;
286 -> 287 ;
288 [label="X[211] <= 0.5\nentropy = 0.1199\nsamples = 1169\nvalue = [1150, 19]"] ;
287 -> 288 ;
289 [label="X[7] <= 1991.9451\nentropy = 0.0729\nsamples = 793\nvalue = [786, 7]"] ;
288 -> 289 ;
290 [label="X[7] <= 1986.985\nentropy = 0.1026\nsamples = 522\nvalue = [515, 7]"] ;
289 -> 290 ;
291 [label="X[350] <= 0.5\nentropy = 0.0908\nsamples = 520\nvalue = [514, 6]"] ;
290 -> 291 ;
292 [label="X[2] <= 11.0\nentropy = 0.0786\nsamples = 517\nvalue = [512, 5]"] ;
291 -> 292 ;
293 [label="X[23] <= 0.5\nentropy = 0.0435\nsamples = 421\nvalue = [419, 2]"] ;
292 -> 293 ;
294 [label="X[11] <= 24.5\nentropy = 0.0243\nsamples = 418\nvalue = [417, 1]"] ;
293 -> 294 ;
295 [label="X[9] <= 1.5\nentropy = 0.2164\nsamples = 29\nvalue = [28, 1]"] ;
294 -> 295 ;
296 [label="entropy = 0.0\nsamples = 25\nvalue = [25, 0]"] ;
295 -> 296 ;
297 [label="X[7] <= 1283.4299\nentropy = 0.8113\nsamples = 4\nvalue = [3, 1]"] ;
295 -> 297 ;
298 [label="entropy = 0.0\nsamples = 2\nvalue = [2, 0]"] ;
297 -> 298 ;
299 [label="X[335] <= 0.5\nentropy = 1.0\nsamples = 2\nvalue = [1, 1]"] ;
297 -> 299 ;
300 [label="entropy = 0.0\nsamples = 1\nvalue = [0, 1]"] ;
299 -> 300 ;
301 [label="entropy = 0.0\nsamples = 1\nvalue = [1, 0]"] ;
299 -> 301 ;
302 [label="entropy = 0.0\nsamples = 389\nvalue = [389, 0]"] ;
294 -> 302 ;
303 [label="X[231] <= 0.5\nentropy = 0.9183\nsamples = 3\nvalue = [2, 1]"] ;
293 -> 303 ;
304 [label="entropy = 0.0\nsamples = 2\nvalue = [2, 0]"] ;
303 -> 304 ;
305 [label="entropy = 0.0\nsamples = 1\nvalue = [0, 1]"] ;
303 -> 305 ;
306 [label="X[236] <= 0.5\nentropy = 0.2006\nsamples = 96\nvalue = [93, 3]"] ;
292 -> 306 ;
307 [label="X[294] <= 0.5\nentropy = 0.1473\nsamples = 95\nvalue = [93, 2]"] ;
306 -> 307 ;
308 [label="entropy = 0.0\nsamples = 64\nvalue = [64, 0]"] ;
307 -> 308 ;
309 [label="X[262] <= 0.5\nentropy = 0.3451\nsamples = 31\nvalue = [29, 2]"] ;
307 -> 309 ;
310 [label="X[216] <= 0.5\nentropy = 0.2108\nsamples = 30\nvalue = [29, 1]"] ;
309 -> 310 ;
311 [label="entropy = 0.0\nsamples = 29\nvalue = [29, 0]"] ;
310 -> 311 ;
312 [label="entropy = 0.0\nsamples = 1\nvalue = [0, 1]"] ;
310 -> 312 ;
313 [label="entropy = 0.0\nsamples = 1\nvalue = [0, 1]"] ;
309 -> 313 ;
314 [label="entropy = 0.0\nsamples = 1\nvalue = [0, 1]"] ;
306 -> 314 ;
315 [label="X[201] <= 0.5\nentropy = 0.9183\nsamples = 3\nvalue = [2, 1]"] ;
291 -> 315 ;
316 [label="entropy = 0.0\nsamples = 2\nvalue = [2, 0]"] ;
315 -> 316 ;
317 [label="entropy = 0.0\nsamples = 1\nvalue = [0, 1]"] ;
315 -> 317 ;
318 [label="X[288] <= 0.5\nentropy = 1.0\nsamples = 2\nvalue = [1, 1]"] ;
290 -> 318 ;
319 [label="entropy = 0.0\nsamples = 1\nvalue = [0, 1]"] ;
318 -> 319 ;
320 [label="entropy = 0.0\nsamples = 1\nvalue = [1, 0]"] ;
318 -> 320 ;
321 [label="entropy = 0.0\nsamples = 271\nvalue = [271, 0]"] ;
289 -> 321 ;
322 [label="X[0] <= 26.5\nentropy = 0.2039\nsamples = 376\nvalue = [364, 12]"] ;
288 -> 322 ;
323 [label="X[253] <= 0.5\nentropy = 0.0545\nsamples = 161\nvalue = [160, 1]"] ;
322 -> 323 ;
324 [label="entropy = 0.0\nsamples = 145\nvalue = [145, 0]"] ;
323 -> 324 ;
325 [label="X[0] <= 22.5\nentropy = 0.3373\nsamples = 16\nvalue = [15, 1]"] ;
323 -> 325 ;
326 [label="X[8] <= 5.0\nentropy = 1.0\nsamples = 2\nvalue = [1, 1]"] ;
325 -> 326 ;
327 [label="entropy = 0.0\nsamples = 1\nvalue = [0, 1]"] ;
326 -> 327 ;
328 [label="entropy = 0.0\nsamples = 1\nvalue = [1, 0]"] ;
326 -> 328 ;
329 [label="entropy = 0.0\nsamples = 14\nvalue = [14, 0]"] ;
325 -> 329 ;
330 [label="X[1] <= 42.5\nentropy = 0.2913\nsamples = 215\nvalue = [204, 11]"] ;
322 -> 330 ;
331 [label="X[251] <= 0.5\nentropy = 0.4138\nsamples = 120\nvalue = [110, 10]"] ;
330 -> 331 ;
332 [label="X[73] <= 0.5\nentropy = 0.3866\nsamples = 119\nvalue = [110, 9]"] ;
331 -> 332 ;
333 [label="X[285] <= 0.5\nentropy = 0.3576\nsamples = 118\nvalue = [110, 8]"] ;
332 -> 333 ;
334 [label="X[11] <= 29.0\nentropy = 0.1851\nsamples = 71\nvalue = [69, 2]"] ;
333 -> 334 ;
335 [label="X[297] <= 0.5\nentropy = 0.4262\nsamples = 23\nvalue = [21, 2]"] ;
334 -> 335 ;
336 [label="X[232] <= 0.5\nentropy = 0.2668\nsamples = 22\nvalue = [21, 1]"] ;
335 -> 336 ;
337 [label="entropy = 0.0\nsamples = 19\nvalue = [19, 0]"] ;
336 -> 337 ;
338 [label="X[8] <= 3.5\nentropy = 0.9183\nsamples = 3\nvalue = [2, 1]"] ;
336 -> 338 ;
339 [label="entropy = 0.0\nsamples = 1\nvalue = [0, 1]"] ;
338 -> 339 ;
340 [label="entropy = 0.0\nsamples = 2\nvalue = [2, 0]"] ;
338 -> 340 ;
341 [label="entropy = 0.0\nsamples = 1\nvalue = [0, 1]"] ;
335 -> 341 ;
342 [label="entropy = 0.0\nsamples = 48\nvalue = [48, 0]"] ;
334 -> 342 ;
343 [label="X[101] <= 0.5\nentropy = 0.551\nsamples = 47\nvalue = [41, 6]"] ;
333 -> 343 ;
344 [label="X[309] <= 0.5\nentropy = 0.496\nsamples = 46\nvalue = [41, 5]"] ;
343 -> 344 ;
345 [label="X[0] <= 30.5\nentropy = 0.4328\nsamples = 45\nvalue = [41, 4]"] ;
344 -> 345 ;
346 [label="entropy = 0.0\nsamples = 14\nvalue = [14, 0]"] ;
345 -> 346 ;
347 [label="X[7] <= 543.55\nentropy = 0.5548\nsamples = 31\nvalue = [27, 4]"] ;
345 -> 347 ;
348 [label="entropy = 0.0\nsamples = 1\nvalue = [0, 1]"] ;
347 -> 348 ;
349 [label="X[1] <= 11.5\nentropy = 0.469\nsamples = 30\nvalue = [27, 3]"] ;
347 -> 349 ;
350 [label="entropy = 0.0\nsamples = 1\nvalue = [0, 1]"] ;
349 -> 350 ;
351 [label="X[0] <= 31.5\nentropy = 0.3621\nsamples = 29\nvalue = [27, 2]"] ;
349 -> 351 ;
352 [label="X[257] <= 0.5\nentropy = 0.8113\nsamples = 4\nvalue = [3, 1]"] ;
351 -> 352 ;
353 [label="entropy = 0.0\nsamples = 3\nvalue = [3, 0]"] ;
352 -> 353 ;
354 [label="entropy = 0.0\nsamples = 1\nvalue = [0, 1]"] ;
352 -> 354 ;
355 [label="X[7] <= 2153.895\nentropy = 0.2423\nsamples = 25\nvalue = [24, 1]"] ;
351 -> 355 ;
356 [label="entropy = 0.0\nsamples = 18\nvalue = [18, 0]"] ;
355 -> 356 ;
357 [label="X[7] <= 2245.1299\nentropy = 0.5917\nsamples = 7\nvalue = [6, 1]"] ;
355 -> 357 ;
358 [label="entropy = 0.0\nsamples = 1\nvalue = [0, 1]"] ;
357 -> 358 ;
359 [label="entropy = 0.0\nsamples = 6\nvalue = [6, 0]"] ;
357 -> 359 ;
360 [label="entropy = 0.0\nsamples = 1\nvalue = [0, 1]"] ;
344 -> 360 ;
361 [label="entropy = 0.0\nsamples = 1\nvalue = [0, 1]"] ;
343 -> 361 ;
362 [label="entropy = 0.0\nsamples = 1\nvalue = [0, 1]"] ;
332 -> 362 ;
363 [label="entropy = 0.0\nsamples = 1\nvalue = [0, 1]"] ;
331 -> 363 ;
364 [label="X[311] <= 0.5\nentropy = 0.0843\nsamples = 95\nvalue = [94, 1]"] ;
330 -> 364 ;
365 [label="entropy = 0.0\nsamples = 94\nvalue = [94, 0]"] ;
364 -> 365 ;
366 [label="entropy = 0.0\nsamples = 1\nvalue = [0, 1]"] ;
364 -> 366 ;
367 [label="X[0] <= 22.5\nentropy = 0.8113\nsamples = 8\nvalue = [6, 2]"] ;
287 -> 367 ;
368 [label="entropy = 0.0\nsamples = 2\nvalue = [0, 2]"] ;
367 -> 368 ;
369 [label="entropy = 0.0\nsamples = 6\nvalue = [6, 0]"] ;
367 -> 369 ;
370 [label="X[230] <= 0.5\nentropy = 0.4187\nsamples = 59\nvalue = [54, 5]"] ;
286 -> 370 ;
371 [label="X[2] <= 11.5\nentropy = 0.6632\nsamples = 29\nvalue = [24, 5]"] ;
370 -> 371 ;
372 [label="X[372] <= 0.5\nentropy = 0.9403\nsamples = 14\nvalue = [9, 5]"] ;
371 -> 372 ;
373 [label="entropy = 0.0\nsamples = 2\nvalue = [0, 2]"] ;
372 -> 373 ;
374 [label="X[2] <= 2.5\nentropy = 0.8113\nsamples = 12\nvalue = [9, 3]"] ;
372 -> 374 ;
375 [label="X[11] <= 41.0\nentropy = 0.8113\nsamples = 4\nvalue = [1, 3]"] ;
374 -> 375 ;
376 [label="entropy = 0.0\nsamples = 3\nvalue = [0, 3]"] ;
375 -> 376 ;
377 [label="entropy = 0.0\nsamples = 1\nvalue = [1, 0]"] ;
375 -> 377 ;
378 [label="entropy = 0.0\nsamples = 8\nvalue = [8, 0]"] ;
374 -> 378 ;
379 [label="entropy = 0.0\nsamples = 15\nvalue = [15, 0]"] ;
371 -> 379 ;
380 [label="entropy = 0.0\nsamples = 30\nvalue = [30, 0]"] ;
370 -> 380 ;
381 [label="X[8] <= 5.5\nentropy = 0.2866\nsamples = 959\nvalue = [911, 48]"] ;
285 -> 381 ;
382 [label="X[11] <= 39.5\nentropy = 0.1981\nsamples = 618\nvalue = [599, 19]"] ;
381 -> 382 ;
383 [label="X[192] <= 0.5\nentropy = 0.0758\nsamples = 432\nvalue = [428, 4]"] ;
382 -> 383 ;
384 [label="X[0] <= 78.5\nentropy = 0.0599\nsamples = 431\nvalue = [428, 3]"] ;
383 -> 384 ;
385 [label="X[211] <= 0.5\nentropy = 0.0428\nsamples = 429\nvalue = [427, 2]"] ;
384 -> 385 ;
386 [label="entropy = 0.0\nsamples = 334\nvalue = [334, 0]"] ;
385 -> 386 ;
387 [label="X[0] <= 43.5\nentropy = 0.1473\nsamples = 95\nvalue = [93, 2]"] ;
385 -> 387 ;
388 [label="entropy = 0.0\nsamples = 39\nvalue = [39, 0]"] ;
387 -> 388 ;
389 [label="X[0] <= 47.5\nentropy = 0.2223\nsamples = 56\nvalue = [54, 2]"] ;
387 -> 389 ;
390 [label="X[2] <= 1.0\nentropy = 0.4262\nsamples = 23\nvalue = [21, 2]"] ;
389 -> 390 ;
391 [label="entropy = 0.0\nsamples = 1\nvalue = [0, 1]"] ;
390 -> 391 ;
392 [label="X[8] <= 4.5\nentropy = 0.2668\nsamples = 22\nvalue = [21, 1]"] ;
390 -> 392 ;
393 [label="entropy = 0.0\nsamples = 18\nvalue = [18, 0]"] ;
392 -> 393 ;
394 [label="X[0] <= 45.0\nentropy = 0.8113\nsamples = 4\nvalue = [3, 1]"] ;
392 -> 394 ;
395 [label="entropy = 0.0\nsamples = 1\nvalue = [0, 1]"] ;
394 -> 395 ;
396 [label="entropy = 0.0\nsamples = 3\nvalue = [3, 0]"] ;
394 -> 396 ;
397 [label="entropy = 0.0\nsamples = 33\nvalue = [33, 0]"] ;
389 -> 397 ;
398 [label="X[7] <= 2361.3201\nentropy = 1.0\nsamples = 2\nvalue = [1, 1]"] ;
384 -> 398 ;
399 [label="entropy = 0.0\nsamples = 1\nvalue = [1, 0]"] ;
398 -> 399 ;
400 [label="entropy = 0.0\nsamples = 1\nvalue = [0, 1]"] ;
398 -> 400 ;
401 [label="entropy = 0.0\nsamples = 1\nvalue = [0, 1]"] ;
383 -> 401 ;
402 [label="X[372] <= 0.5\nentropy = 0.4044\nsamples = 186\nvalue = [171, 15]"] ;
382 -> 402 ;
403 [label="entropy = 0.0\nsamples = 29\nvalue = [29, 0]"] ;
402 -> 403 ;
404 [label="X[0] <= 59.5\nentropy = 0.4547\nsamples = 157\nvalue = [142, 15]"] ;
402 -> 404 ;
405 [label="X[299] <= 0.5\nentropy = 0.4022\nsamples = 150\nvalue = [138, 12]"] ;
404 -> 405 ;
406 [label="X[19] <= 0.5\nentropy = 0.3407\nsamples = 142\nvalue = [133, 9]"] ;
405 -> 406 ;
407 [label="X[245] <= 0.5\nentropy = 0.4335\nsamples = 101\nvalue = [92, 9]"] ;
406 -> 407 ;
408 [label="X[1] <= 39.5\nentropy = 0.4022\nsamples = 100\nvalue = [92, 8]"] ;
407 -> 408 ;
409 [label="X[7] <= 706.435\nentropy = 0.1511\nsamples = 46\nvalue = [45, 1]"] ;
408 -> 409 ;
410 [label="X[8] <= 1.5\nentropy = 0.8113\nsamples = 4\nvalue = [3, 1]"] ;
409 -> 410 ;
411 [label="entropy = 0.0\nsamples = 1\nvalue = [0, 1]"] ;
410 -> 411 ;
412 [label="entropy = 0.0\nsamples = 3\nvalue = [3, 0]"] ;
410 -> 412 ;
413 [label="entropy = 0.0\nsamples = 42\nvalue = [42, 0]"] ;
409 -> 413 ;
414 [label="X[0] <= 47.5\nentropy = 0.5564\nsamples = 54\nvalue = [47, 7]"] ;
408 -> 414 ;
415 [label="X[297] <= 0.5\nentropy = 0.7219\nsamples = 35\nvalue = [28, 7]"] ;
414 -> 415 ;
416 [label="X[8] <= 4.5\nentropy = 0.8555\nsamples = 25\nvalue = [18, 7]"] ;
415 -> 416 ;
417 [label="X[271] <= 0.5\nentropy = 0.9641\nsamples = 18\nvalue = [11, 7]"] ;
416 -> 417 ;
418 [label="X[2] <= 2.5\nentropy = 1.0\nsamples = 14\nvalue = [7, 7]"] ;
417 -> 418 ;
419 [label="entropy = 0.0\nsamples = 4\nvalue = [0, 4]"] ;
418 -> 419 ;
420 [label="X[7] <= 1922.4199\nentropy = 0.8813\nsamples = 10\nvalue = [7, 3]"] ;
418 -> 420 ;
421 [label="entropy = 0.0\nsamples = 5\nvalue = [5, 0]"] ;
420 -> 421 ;
422 [label="X[231] <= 0.5\nentropy = 0.971\nsamples = 5\nvalue = [2, 3]"] ;
420 -> 422 ;
423 [label="entropy = 0.0\nsamples = 3\nvalue = [0, 3]"] ;
422 -> 423 ;
424 [label="entropy = 0.0\nsamples = 2\nvalue = [2, 0]"] ;
422 -> 424 ;
425 [label="entropy = 0.0\nsamples = 4\nvalue = [4, 0]"] ;
417 -> 425 ;
426 [label="entropy = 0.0\nsamples = 7\nvalue = [7, 0]"] ;
416 -> 426 ;
427 [label="entropy = 0.0\nsamples = 10\nvalue = [10, 0]"] ;
415 -> 427 ;
428 [label="entropy = 0.0\nsamples = 19\nvalue = [19, 0]"] ;
414 -> 428 ;
429 [label="entropy = 0.0\nsamples = 1\nvalue = [0, 1]"] ;
407 -> 429 ;
430 [label="entropy = 0.0\nsamples = 41\nvalue = [41, 0]"] ;
406 -> 430 ;
431 [label="X[7] <= 1178.3601\nentropy = 0.9544\nsamples = 8\nvalue = [5, 3]"] ;
405 -> 431 ;
432 [label="entropy = 0.0\nsamples = 4\nvalue = [4, 0]"] ;
431 -> 432 ;
433 [label="X[6] <= 81.5\nentropy = 0.8113\nsamples = 4\nvalue = [1, 3]"] ;
431 -> 433 ;
434 [label="entropy = 0.0\nsamples = 3\nvalue = [0, 3]"] ;
433 -> 434 ;
435 [label="entropy = 0.0\nsamples = 1\nvalue = [1, 0]"] ;
433 -> 435 ;
436 [label="X[1] <= 38.5\nentropy = 0.9852\nsamples = 7\nvalue = [4, 3]"] ;
404 -> 436 ;
437 [label="entropy = 0.0\nsamples = 3\nvalue = [3, 0]"] ;
436 -> 437 ;
438 [label="X[59] <= 0.5\nentropy = 0.8113\nsamples = 4\nvalue = [1, 3]"] ;
436 -> 438 ;
439 [label="entropy = 0.0\nsamples = 3\nvalue = [0, 3]"] ;
438 -> 439 ;
440 [label="entropy = 0.0\nsamples = 1\nvalue = [1, 0]"] ;
438 -> 440 ;
441 [label="X[217] <= 0.5\nentropy = 0.4197\nsamples = 341\nvalue = [312, 29]"] ;
381 -> 441 ;
442 [label="X[15] <= 0.5\nentropy = 0.3912\nsamples = 338\nvalue = [312, 26]"] ;
441 -> 442 ;
443 [label="X[213] <= 0.5\nentropy = 0.3712\nsamples = 336\nvalue = [312, 24]"] ;
442 -> 443 ;
444 [label="X[124] <= 0.5\nentropy = 0.3518\nsamples = 332\nvalue = [310, 22]"] ;
443 -> 444 ;
445 [label="X[322] <= 0.5\nentropy = 0.341\nsamples = 331\nvalue = [310, 21]"] ;
444 -> 445 ;
446 [label="X[6] <= 8.5\nentropy = 0.3298\nsamples = 330\nvalue = [310, 20]"] ;
445 -> 446 ;
447 [label="X[214] <= 0.5\nentropy = 0.2762\nsamples = 294\nvalue = [280, 14]"] ;
446 -> 447 ;
448 [label="X[254] <= 0.5\nentropy = 0.3304\nsamples = 214\nvalue = [201, 13]"] ;
447 -> 448 ;
449 [label="X[11] <= 31.0\nentropy = 0.3127\nsamples = 213\nvalue = [201, 12]"] ;
448 -> 449 ;
450 [label="X[373] <= 0.5\nentropy = 0.1056\nsamples = 72\nvalue = [71, 1]"] ;
449 -> 450 ;
451 [label="entropy = 0.0\nsamples = 63\nvalue = [63, 0]"] ;
450 -> 451 ;
452 [label="X[216] <= 0.5\nentropy = 0.5033\nsamples = 9\nvalue = [8, 1]"] ;
450 -> 452 ;
453 [label="entropy = 0.0\nsamples = 8\nvalue = [8, 0]"] ;
452 -> 453 ;
454 [label="entropy = 0.0\nsamples = 1\nvalue = [0, 1]"] ;
452 -> 454 ;
455 [label="X[46] <= 0.5\nentropy = 0.3951\nsamples = 141\nvalue = [130, 11]"] ;
449 -> 455 ;
456 [label="X[7] <= 1052.9399\nentropy = 0.3712\nsamples = 140\nvalue = [130, 10]"] ;
455 -> 456 ;
457 [label="entropy = 0.0\nsamples = 41\nvalue = [41, 0]"] ;
456 -> 457 ;
458 [label="X[364] <= 0.5\nentropy = 0.4722\nsamples = 99\nvalue = [89, 10]"] ;
456 -> 458 ;
459 [label="X[7] <= 1645.125\nentropy = 0.4426\nsamples = 98\nvalue = [89, 9]"] ;
458 -> 459 ;
460 [label="X[250] <= 0.5\nentropy = 0.7355\nsamples = 29\nvalue = [23, 6]"] ;
459 -> 460 ;
461 [label="X[7] <= 1063.895\nentropy = 0.3534\nsamples = 15\nvalue = [14, 1]"] ;
460 -> 461 ;
462 [label="entropy = 0.0\nsamples = 1\nvalue = [0, 1]"] ;
461 -> 462 ;
463 [label="entropy = 0.0\nsamples = 14\nvalue = [14, 0]"] ;
461 -> 463 ;
464 [label="X[0] <= 43.5\nentropy = 0.9403\nsamples = 14\nvalue = [9, 5]"] ;
460 -> 464 ;
465 [label="X[302] <= 0.5\nentropy = 0.8113\nsamples = 4\nvalue = [1, 3]"] ;
464 -> 465 ;
466 [label="entropy = 0.0\nsamples = 3\nvalue = [0, 3]"] ;
465 -> 466 ;
467 [label="entropy = 0.0\nsamples = 1\nvalue = [1, 0]"] ;
465 -> 467 ;
468 [label="X[256] <= 0.5\nentropy = 0.7219\nsamples = 10\nvalue = [8, 2]"] ;
464 -> 468 ;
469 [label="X[22] <= 0.5\nentropy = 0.9183\nsamples = 3\nvalue = [1, 2]"] ;
468 -> 469 ;
470 [label="entropy = 0.0\nsamples = 2\nvalue = [0, 2]"] ;
469 -> 470 ;
471 [label="entropy = 0.0\nsamples = 1\nvalue = [1, 0]"] ;
469 -> 471 ;
472 [label="entropy = 0.0\nsamples = 7\nvalue = [7, 0]"] ;
468 -> 472 ;
473 [label="X[9] <= 0.5\nentropy = 0.258\nsamples = 69\nvalue = [66, 3]"] ;
459 -> 473 ;
474 [label="entropy = 0.0\nsamples = 55\nvalue = [55, 0]"] ;
473 -> 474 ;
475 [label="X[211] <= 0.5\nentropy = 0.7496\nsamples = 14\nvalue = [11, 3]"] ;
473 -> 475 ;
476 [label="entropy = 0.0\nsamples = 8\nvalue = [8, 0]"] ;
475 -> 476 ;
477 [label="X[1] <= 40.5\nentropy = 1.0\nsamples = 6\nvalue = [3, 3]"] ;
475 -> 477 ;
478 [label="entropy = 0.0\nsamples = 2\nvalue = [2, 0]"] ;
477 -> 478 ;
479 [label="X[0] <= 50.5\nentropy = 0.8113\nsamples = 4\nvalue = [1, 3]"] ;
477 -> 479 ;
480 [label="entropy = 0.0\nsamples = 3\nvalue = [0, 3]"] ;
479 -> 480 ;
481 [label="entropy = 0.0\nsamples = 1\nvalue = [1, 0]"] ;
479 -> 481 ;
482 [label="entropy = 0.0\nsamples = 1\nvalue = [0, 1]"] ;
458 -> 482 ;
483 [label="entropy = 0.0\nsamples = 1\nvalue = [0, 1]"] ;
455 -> 483 ;
484 [label="entropy = 0.0\nsamples = 1\nvalue = [0, 1]"] ;
448 -> 484 ;
485 [label="X[61] <= 0.5\nentropy = 0.0969\nsamples = 80\nvalue = [79, 1]"] ;
447 -> 485 ;
486 [label="entropy = 0.0\nsamples = 78\nvalue = [78, 0]"] ;
485 -> 486 ;
487 [label="X[7] <= 722.04\nentropy = 1.0\nsamples = 2\nvalue = [1, 1]"] ;
485 -> 487 ;
488 [label="entropy = 0.0\nsamples = 1\nvalue = [1, 0]"] ;
487 -> 488 ;
489 [label="entropy = 0.0\nsamples = 1\nvalue = [0, 1]"] ;
487 -> 489 ;
490 [label="X[2] <= 14.5\nentropy = 0.65\nsamples = 36\nvalue = [30, 6]"] ;
446 -> 490 ;
491 [label="X[232] <= 0.5\nentropy = 0.4489\nsamples = 32\nvalue = [29, 3]"] ;
490 -> 491 ;
492 [label="X[299] <= 0.5\nentropy = 0.2164\nsamples = 29\nvalue = [28, 1]"] ;
491 -> 492 ;
493 [label="entropy = 0.0\nsamples = 27\nvalue = [27, 0]"] ;
492 -> 493 ;
494 [label="X[11] <= 39.5\nentropy = 1.0\nsamples = 2\nvalue = [1, 1]"] ;
492 -> 494 ;
495 [label="entropy = 0.0\nsamples = 1\nvalue = [1, 0]"] ;
494 -> 495 ;
496 [label="entropy = 0.0\nsamples = 1\nvalue = [0, 1]"] ;
494 -> 496 ;
497 [label="X[0] <= 44.5\nentropy = 0.9183\nsamples = 3\nvalue = [1, 2]"] ;
491 -> 497 ;
498 [label="entropy = 0.0\nsamples = 1\nvalue = [1, 0]"] ;
497 -> 498 ;
499 [label="entropy = 0.0\nsamples = 2\nvalue = [0, 2]"] ;
497 -> 499 ;
500 [label="X[0] <= 50.0\nentropy = 0.8113\nsamples = 4\nvalue = [1, 3]"] ;
490 -> 500 ;
501 [label="entropy = 0.0\nsamples = 3\nvalue = [0, 3]"] ;
500 -> 501 ;
502 [label="entropy = 0.0\nsamples = 1\nvalue = [1, 0]"] ;
500 -> 502 ;
503 [label="entropy = 0.0\nsamples = 1\nvalue = [0, 1]"] ;
445 -> 503 ;
504 [label="entropy = 0.0\nsamples = 1\nvalue = [0, 1]"] ;
444 -> 504 ;
505 [label="X[317] <= 0.5\nentropy = 1.0\nsamples = 4\nvalue = [2, 2]"] ;
443 -> 505 ;
506 [label="entropy = 0.0\nsamples = 2\nvalue = [0, 2]"] ;
505 -> 506 ;
507 [label="entropy = 0.0\nsamples = 2\nvalue = [2, 0]"] ;
505 -> 507 ;
508 [label="entropy = 0.0\nsamples = 2\nvalue = [0, 2]"] ;
442 -> 508 ;
509 [label="entropy = 0.0\nsamples = 3\nvalue = [0, 3]"] ;
441 -> 509 ;
510 [label="X[5] <= 2631.5\nentropy = 0.7219\nsamples = 5\nvalue = [1, 4]"] ;
284 -> 510 ;
511 [label="entropy = 0.0\nsamples = 4\nvalue = [0, 4]"] ;
510 -> 511 ;
512 [label="entropy = 0.0\nsamples = 1\nvalue = [1, 0]"] ;
510 -> 512 ;
513 [label="X[318] <= 0.5\nentropy = 0.0609\nsamples = 5349\nvalue = [5311, 38]"] ;
281 -> 513 ;
514 [label="X[69] <= 0.5\nentropy = 0.0302\nsamples = 3234\nvalue = [3224, 10]"] ;
513 -> 514 ;
515 [label="X[333] <= 0.5\nentropy = 0.0277\nsamples = 3231\nvalue = [3222, 9]"] ;
514 -> 515 ;
516 [label="X[118] <= 0.5\nentropy = 0.0251\nsamples = 3221\nvalue = [3213, 8]"] ;
515 -> 516 ;
517 [label="X[0] <= 42.5\nentropy = 0.0224\nsamples = 3211\nvalue = [3204, 7]"] ;
516 -> 517 ;
518 [label="X[23] <= 0.5\nentropy = 0.0096\nsamples = 2423\nvalue = [2421, 2]"] ;
517 -> 518 ;
519 [label="X[209] <= 0.5\nentropy = 0.0053\nsamples = 2408\nvalue = [2407, 1]"] ;
518 -> 519 ;
520 [label="entropy = 0.0\nsamples = 2335\nvalue = [2335, 0]"] ;
519 -> 520 ;
521 [label="X[191] <= 0.5\nentropy = 0.1044\nsamples = 73\nvalue = [72, 1]"] ;
519 -> 521 ;
522 [label="entropy = 0.0\nsamples = 70\nvalue = [70, 0]"] ;
521 -> 522 ;
523 [label="X[0] <= 28.5\nentropy = 0.9183\nsamples = 3\nvalue = [2, 1]"] ;
521 -> 523 ;
524 [label="entropy = 0.0\nsamples = 2\nvalue = [2, 0]"] ;
523 -> 524 ;
525 [label="entropy = 0.0\nsamples = 1\nvalue = [0, 1]"] ;
523 -> 525 ;
526 [label="X[2] <= 38.5\nentropy = 0.3534\nsamples = 15\nvalue = [14, 1]"] ;
518 -> 526 ;
527 [label="entropy = 0.0\nsamples = 14\nvalue = [14, 0]"] ;
526 -> 527 ;
528 [label="entropy = 0.0\nsamples = 1\nvalue = [0, 1]"] ;
526 -> 528 ;
529 [label="X[263] <= 0.5\nentropy = 0.0554\nsamples = 788\nvalue = [783, 5]"] ;
517 -> 529 ;
530 [label="X[302] <= 0.5\nentropy = 0.0381\nsamples = 740\nvalue = [737, 3]"] ;
529 -> 530 ;
531 [label="X[216] <= 0.5\nentropy = 0.016\nsamples = 679\nvalue = [678, 1]"] ;
530 -> 531 ;
532 [label="entropy = 0.0\nsamples = 668\nvalue = [668, 0]"] ;
531 -> 532 ;
533 [label="X[7] <= 1058.38\nentropy = 0.4395\nsamples = 11\nvalue = [10, 1]"] ;
531 -> 533 ;
534 [label="entropy = 0.0\nsamples = 1\nvalue = [0, 1]"] ;
533 -> 534 ;
535 [label="entropy = 0.0\nsamples = 10\nvalue = [10, 0]"] ;
533 -> 535 ;
536 [label="X[179] <= 0.5\nentropy = 0.2082\nsamples = 61\nvalue = [59, 2]"] ;
530 -> 536 ;
537 [label="X[235] <= 0.5\nentropy = 0.1223\nsamples = 60\nvalue = [59, 1]"] ;
536 -> 537 ;
538 [label="entropy = 0.0\nsamples = 57\nvalue = [57, 0]"] ;
537 -> 538 ;
539 [label="X[275] <= 0.5\nentropy = 0.9183\nsamples = 3\nvalue = [2, 1]"] ;
537 -> 539 ;
540 [label="entropy = 0.0\nsamples = 1\nvalue = [0, 1]"] ;
539 -> 540 ;
541 [label="entropy = 0.0\nsamples = 2\nvalue = [2, 0]"] ;
539 -> 541 ;
542 [label="entropy = 0.0\nsamples = 1\nvalue = [0, 1]"] ;
536 -> 542 ;
543 [label="X[3] <= 1125.5\nentropy = 0.2499\nsamples = 48\nvalue = [46, 2]"] ;
529 -> 543 ;
544 [label="X[0] <= 43.5\nentropy = 0.1485\nsamples = 47\nvalue = [46, 1]"] ;
543 -> 544 ;
545 [label="X[275] <= 0.5\nentropy = 1.0\nsamples = 2\nvalue = [1, 1]"] ;
544 -> 545 ;
546 [label="entropy = 0.0\nsamples = 1\nvalue = [1, 0]"] ;
545 -> 546 ;
547 [label="entropy = 0.0\nsamples = 1\nvalue = [0, 1]"] ;
545 -> 547 ;
548 [label="entropy = 0.0\nsamples = 45\nvalue = [45, 0]"] ;
544 -> 548 ;
549 [label="entropy = 0.0\nsamples = 1\nvalue = [0, 1]"] ;
543 -> 549 ;
550 [label="X[210] <= 0.5\nentropy = 0.469\nsamples = 10\nvalue = [9, 1]"] ;
516 -> 550 ;
551 [label="entropy = 0.0\nsamples = 9\nvalue = [9, 0]"] ;
550 -> 551 ;
552 [label="entropy = 0.0\nsamples = 1\nvalue = [0, 1]"] ;
550 -> 552 ;
553 [label="X[253] <= 0.5\nentropy = 0.469\nsamples = 10\nvalue = [9, 1]"] ;
515 -> 553 ;
554 [label="entropy = 0.0\nsamples = 9\nvalue = [9, 0]"] ;
553 -> 554 ;
555 [label="entropy = 0.0\nsamples = 1\nvalue = [0, 1]"] ;
553 -> 555 ;
556 [label="X[2] <= 27.5\nentropy = 0.9183\nsamples = 3\nvalue = [2, 1]"] ;
514 -> 556 ;
557 [label="entropy = 0.0\nsamples = 1\nvalue = [0, 1]"] ;
556 -> 557 ;
558 [label="entropy = 0.0\nsamples = 2\nvalue = [2, 0]"] ;
556 -> 558 ;
559 [label="X[0] <= 19.5\nentropy = 0.1016\nsamples = 2115\nvalue = [2087, 28]"] ;
513 -> 559 ;
560 [label="entropy = 0.0\nsamples = 519\nvalue = [519, 0]"] ;
559 -> 560 ;
561 [label="X[5] <= 2231.5\nentropy = 0.1274\nsamples = 1596\nvalue = [1568, 28]"] ;
559 -> 561 ;
562 [label="X[213] <= 0.5\nentropy = 0.1203\nsamples = 1593\nvalue = [1567, 26]"] ;
561 -> 562 ;
563 [label="X[372] <= 0.5\nentropy = 0.1129\nsamples = 1590\nvalue = [1566, 24]"] ;
562 -> 563 ;
564 [label="X[113] <= 0.5\nentropy = 0.0753\nsamples = 1199\nvalue = [1188, 11]"] ;
563 -> 564 ;
565 [label="X[103] <= 0.5\nentropy = 0.0645\nsamples = 1182\nvalue = [1173, 9]"] ;
564 -> 565 ;
566 [label="X[2] <= 36.5\nentropy = 0.0586\nsamples = 1180\nvalue = [1172, 8]"] ;
565 -> 566 ;
567 [label="X[12] <= 94.5\nentropy = 0.086\nsamples = 741\nvalue = [733, 8]"] ;
566 -> 567 ;
568 [label="X[210] <= 0.5\nentropy = 0.0247\nsamples = 409\nvalue = [408, 1]"] ;
567 -> 568 ;
569 [label="entropy = 0.0\nsamples = 392\nvalue = [392, 0]"] ;
568 -> 569 ;
570 [label="X[53] <= 0.5\nentropy = 0.3228\nsamples = 17\nvalue = [16, 1]"] ;
568 -> 570 ;
571 [label="entropy = 0.0\nsamples = 16\nvalue = [16, 0]"] ;
570 -> 571 ;
572 [label="entropy = 0.0\nsamples = 1\nvalue = [0, 1]"] ;
570 -> 572 ;
573 [label="X[73] <= 0.5\nentropy = 0.1475\nsamples = 332\nvalue = [325, 7]"] ;
567 -> 573 ;
574 [label="X[258] <= 0.5\nentropy = 0.1314\nsamples = 329\nvalue = [323, 6]"] ;
573 -> 574 ;
575 [label="X[0] <= 24.5\nentropy = 0.1144\nsamples = 326\nvalue = [321, 5]"] ;
574 -> 575 ;
576 [label="X[8] <= 3.5\nentropy = 0.1959\nsamples = 165\nvalue = [160, 5]"] ;
575 -> 576 ;
577 [label="X[235] <= 0.5\nentropy = 0.3603\nsamples = 73\nvalue = [68, 5]"] ;
576 -> 577 ;
578 [label="X[11] <= 31.0\nentropy = 0.258\nsamples = 69\nvalue = [66, 3]"] ;
577 -> 578 ;
579 [label="X[306] <= 0.5\nentropy = 0.406\nsamples = 37\nvalue = [34, 3]"] ;
578 -> 579 ;
580 [label="X[7] <= 2982.7949\nentropy = 0.3095\nsamples = 36\nvalue = [34, 2]"] ;
579 -> 580 ;
581 [label="entropy = 0.0\nsamples = 31\nvalue = [31, 0]"] ;
580 -> 581 ;
582 [label="X[7] <= 3699.5449\nentropy = 0.971\nsamples = 5\nvalue = [3, 2]"] ;
580 -> 582 ;
583 [label="entropy = 0.0\nsamples = 2\nvalue = [0, 2]"] ;
582 -> 583 ;
584 [label="entropy = 0.0\nsamples = 3\nvalue = [3, 0]"] ;
582 -> 584 ;
585 [label="entropy = 0.0\nsamples = 1\nvalue = [0, 1]"] ;
579 -> 585 ;
586 [label="entropy = 0.0\nsamples = 32\nvalue = [32, 0]"] ;
578 -> 586 ;
587 [label="X[218] <= 0.5\nentropy = 1.0\nsamples = 4\nvalue = [2, 2]"] ;
577 -> 587 ;
588 [label="entropy = 0.0\nsamples = 2\nvalue = [0, 2]"] ;
587 -> 588 ;
589 [label="entropy = 0.0\nsamples = 2\nvalue = [2, 0]"] ;
587 -> 589 ;
590 [label="entropy = 0.0\nsamples = 92\nvalue = [92, 0]"] ;
576 -> 590 ;
591 [label="entropy = 0.0\nsamples = 161\nvalue = [161, 0]"] ;
575 -> 591 ;
592 [label="X[0] <= 33.0\nentropy = 0.9183\nsamples = 3\nvalue = [2, 1]"] ;
574 -> 592 ;
593 [label="entropy = 0.0\nsamples = 2\nvalue = [2, 0]"] ;
592 -> 593 ;
594 [label="entropy = 0.0\nsamples = 1\nvalue = [0, 1]"] ;
592 -> 594 ;
595 [label="X[221] <= 0.5\nentropy = 0.9183\nsamples = 3\nvalue = [2, 1]"] ;
573 -> 595 ;
596 [label="entropy = 0.0\nsamples = 2\nvalue = [2, 0]"] ;
595 -> 596 ;
597 [label="entropy = 0.0\nsamples = 1\nvalue = [0, 1]"] ;
595 -> 597 ;
598 [label="entropy = 0.0\nsamples = 439\nvalue = [439, 0]"] ;
566 -> 598 ;
599 [label="X[13] <= 0.5\nentropy = 1.0\nsamples = 2\nvalue = [1, 1]"] ;
565 -> 599 ;
600 [label="entropy = 0.0\nsamples = 1\nvalue = [0, 1]"] ;
599 -> 600 ;
601 [label="entropy = 0.0\nsamples = 1\nvalue = [1, 0]"] ;
599 -> 601 ;
602 [label="X[1] <= 11.5\nentropy = 0.5226\nsamples = 17\nvalue = [15, 2]"] ;
564 -> 602 ;
603 [label="entropy = 0.0\nsamples = 2\nvalue = [0, 2]"] ;
602 -> 603 ;
604 [label="entropy = 0.0\nsamples = 15\nvalue = [15, 0]"] ;
602 -> 604 ;
605 [label="X[11] <= 39.5\nentropy = 0.2104\nsamples = 391\nvalue = [378, 13]"] ;
563 -> 605 ;
606 [label="X[243] <= 0.5\nentropy = 0.0911\nsamples = 259\nvalue = [256, 3]"] ;
605 -> 606 ;
607 [label="X[310] <= 0.5\nentropy = 0.0405\nsamples = 229\nvalue = [228, 1]"] ;
606 -> 607 ;
608 [label="entropy = 0.0\nsamples = 223\nvalue = [223, 0]"] ;
607 -> 608 ;
609 [label="X[7] <= 364.56\nentropy = 0.65\nsamples = 6\nvalue = [5, 1]"] ;
607 -> 609 ;
610 [label="entropy = 0.0\nsamples = 1\nvalue = [0, 1]"] ;
609 -> 610 ;
611 [label="entropy = 0.0\nsamples = 5\nvalue = [5, 0]"] ;
609 -> 611 ;
612 [label="X[7] <= 2279.865\nentropy = 0.3534\nsamples = 30\nvalue = [28, 2]"] ;
606 -> 612 ;
613 [label="entropy = 0.0\nsamples = 26\nvalue = [26, 0]"] ;
612 -> 613 ;
614 [label="X[0] <= 30.0\nentropy = 1.0\nsamples = 4\nvalue = [2, 2]"] ;
612 -> 614 ;
615 [label="entropy = 0.0\nsamples = 2\nvalue = [2, 0]"] ;
614 -> 615 ;
616 [label="entropy = 0.0\nsamples = 2\nvalue = [0, 2]"] ;
614 -> 616 ;
617 [label="X[9] <= 0.5\nentropy = 0.3871\nsamples = 132\nvalue = [122, 10]"] ;
605 -> 617 ;
618 [label="X[1] <= 37.5\nentropy = 0.5226\nsamples = 85\nvalue = [75, 10]"] ;
617 -> 618 ;
619 [label="X[8] <= 1.5\nentropy = 0.406\nsamples = 74\nvalue = [68, 6]"] ;
618 -> 619 ;
620 [label="entropy = 0.0\nsamples = 25\nvalue = [25, 0]"] ;
619 -> 620 ;
621 [label="X[255] <= 0.5\nentropy = 0.5364\nsamples = 49\nvalue = [43, 6]"] ;
619 -> 621 ;
622 [label="X[0] <= 50.5\nentropy = 0.2918\nsamples = 39\nvalue = [37, 2]"] ;
621 -> 622 ;
623 [label="entropy = 0.0\nsamples = 32\nvalue = [32, 0]"] ;
622 -> 623 ;
624 [label="X[11] <= 43.5\nentropy = 0.8631\nsamples = 7\nvalue = [5, 2]"] ;
622 -> 624 ;
625 [label="entropy = 0.0\nsamples = 5\nvalue = [5, 0]"] ;
624 -> 625 ;
626 [label="entropy = 0.0\nsamples = 2\nvalue = [0, 2]"] ;
624 -> 626 ;
627 [label="X[0] <= 40.5\nentropy = 0.971\nsamples = 10\nvalue = [6, 4]"] ;
621 -> 627 ;
628 [label="X[0] <= 32.0\nentropy = 0.8113\nsamples = 8\nvalue = [6, 2]"] ;
627 -> 628 ;
629 [label="X[231] <= 0.5\nentropy = 0.9183\nsamples = 3\nvalue = [1, 2]"] ;
628 -> 629 ;
630 [label="entropy = 0.0\nsamples = 2\nvalue = [0, 2]"] ;
629 -> 630 ;
631 [label="entropy = 0.0\nsamples = 1\nvalue = [1, 0]"] ;
629 -> 631 ;
632 [label="entropy = 0.0\nsamples = 5\nvalue = [5, 0]"] ;
628 -> 632 ;
633 [label="entropy = 0.0\nsamples = 2\nvalue = [0, 2]"] ;
627 -> 633 ;
634 [label="X[11] <= 41.0\nentropy = 0.9457\nsamples = 11\nvalue = [7, 4]"] ;
618 -> 634 ;
635 [label="X[7] <= 697.295\nentropy = 0.5917\nsamples = 7\nvalue = [6, 1]"] ;
634 -> 635 ;
636 [label="entropy = 0.0\nsamples = 1\nvalue = [0, 1]"] ;
635 -> 636 ;
637 [label="entropy = 0.0\nsamples = 6\nvalue = [6, 0]"] ;
635 -> 637 ;
638 [label="X[7] <= 860.11\nentropy = 0.8113\nsamples = 4\nvalue = [1, 3]"] ;
634 -> 638 ;
639 [label="entropy = 0.0\nsamples = 1\nvalue = [1, 0]"] ;
638 -> 639 ;
640 [label="entropy = 0.0\nsamples = 3\nvalue = [0, 3]"] ;
638 -> 640 ;
641 [label="entropy = 0.0\nsamples = 47\nvalue = [47, 0]"] ;
617 -> 641 ;
642 [label="X[249] <= 0.5\nentropy = 0.9183\nsamples = 3\nvalue = [1, 2]"] ;
562 -> 642 ;
643 [label="entropy = 0.0\nsamples = 1\nvalue = [1, 0]"] ;
642 -> 643 ;
644 [label="entropy = 0.0\nsamples = 2\nvalue = [0, 2]"] ;
642 -> 644 ;
645 [label="X[0] <= 23.5\nentropy = 0.9183\nsamples = 3\nvalue = [1, 2]"] ;
561 -> 645 ;
646 [label="entropy = 0.0\nsamples = 1\nvalue = [1, 0]"] ;
645 -> 646 ;
647 [label="entropy = 0.0\nsamples = 2\nvalue = [0, 2]"] ;
645 -> 647 ;
648 [label="X[216] <= 0.5\nentropy = 0.1666\nsamples = 17192\nvalue = [16769, 423]"] ;
4 -> 648 ;
649 [label="X[5] <= 1881.5\nentropy = 0.1484\nsamples = 16525\nvalue = [16174, 351]"] ;
648 -> 649 ;
650 [label="X[285] <= 0.5\nentropy = 0.1373\nsamples = 16240\nvalue = [15927, 313]"] ;
649 -> 650 ;
651 [label="X[211] <= 0.5\nentropy = 0.1257\nsamples = 15719\nvalue = [15448, 271]"] ;
650 -> 651 ;
652 [label="X[11] <= 16.5\nentropy = 0.1105\nsamples = 14355\nvalue = [14144, 211]"] ;
651 -> 652 ;
653 [label="X[0] <= 35.5\nentropy = 0.0881\nsamples = 9626\nvalue = [9519, 107]"] ;
652 -> 653 ;
654 [label="X[301] <= 0.5\nentropy = 0.0112\nsamples = 1022\nvalue = [1021, 1]"] ;
653 -> 654 ;
655 [label="entropy = 0.0\nsamples = 997\nvalue = [997, 0]"] ;
654 -> 655 ;
656 [label="X[309] <= 0.5\nentropy = 0.2423\nsamples = 25\nvalue = [24, 1]"] ;
654 -> 656 ;
657 [label="entropy = 0.0\nsamples = 24\nvalue = [24, 0]"] ;
656 -> 657 ;
658 [label="entropy = 0.0\nsamples = 1\nvalue = [0, 1]"] ;
656 -> 658 ;
659 [label="X[213] <= 0.5\nentropy = 0.0958\nsamples = 8604\nvalue = [8498, 106]"] ;
653 -> 659 ;
660 [label="X[202] <= 0.5\nentropy = 0.0926\nsamples = 8551\nvalue = [8450, 101]"] ;
659 -> 660 ;
661 [label="X[92] <= 0.5\nentropy = 0.097\nsamples = 7995\nvalue = [7895, 100]"] ;
660 -> 661 ;
662 [label="X[360] <= 0.5\nentropy = 0.0998\nsamples = 7718\nvalue = [7618, 100]"] ;
661 -> 662 ;
663 [label="X[2] <= 22.5\nentropy = 0.099\nsamples = 7717\nvalue = [7618, 99]"] ;
662 -> 663 ;
664 [label="X[3] <= 1171.0\nentropy = 0.1041\nsamples = 7105\nvalue = [7008, 97]"] ;
663 -> 664 ;
665 [label="X[0] <= 36.5\nentropy = 0.1033\nsamples = 7104\nvalue = [7008, 96]"] ;
664 -> 665 ;
666 [label="X[27] <= 0.5\nentropy = 0.3843\nsamples = 40\nvalue = [37, 3]"] ;
665 -> 666 ;
667 [label="X[14] <= 0.5\nentropy = 0.2918\nsamples = 39\nvalue = [37, 2]"] ;
666 -> 667 ;
668 [label="X[4] <= 2251.0\nentropy = 0.1756\nsamples = 38\nvalue = [37, 1]"] ;
667 -> 668 ;
669 [label="entropy = 0.0\nsamples = 37\nvalue = [37, 0]"] ;
668 -> 669 ;
670 [label="entropy = 0.0\nsamples = 1\nvalue = [0, 1]"] ;
668 -> 670 ;
671 [label="entropy = 0.0\nsamples = 1\nvalue = [0, 1]"] ;
667 -> 671 ;
672 [label="entropy = 0.0\nsamples = 1\nvalue = [0, 1]"] ;
666 -> 672 ;
673 [label="X[4] <= 200.5\nentropy = 0.1011\nsamples = 7064\nvalue = [6971, 93]"] ;
665 -> 673 ;
674 [label="X[0] <= 42.5\nentropy = 0.1069\nsamples = 6453\nvalue = [6362, 91]"] ;
673 -> 674 ;
675 [label="entropy = 0.0\nsamples = 201\nvalue = [201, 0]"] ;
674 -> 675 ;
676 [label="X[346] <= 0.5\nentropy = 0.1097\nsamples = 6252\nvalue = [6161, 91]"] ;
674 -> 676 ;
677 [label="X[13] <= 0.5\nentropy = 0.1087\nsamples = 6249\nvalue = [6159, 90]"] ;
676 -> 677 ;
678 [label="X[203] <= 0.5\nentropy = 0.1109\nsamples = 6095\nvalue = [6005, 90]"] ;
677 -> 678 ;
679 [label="X[208] <= 0.5\nentropy = 0.1148\nsamples = 5777\nvalue = [5688, 89]"] ;
678 -> 679 ;
680 [label="X[207] <= 0.5\nentropy = 0.1188\nsamples = 5474\nvalue = [5386, 88]"] ;
679 -> 680 ;
681 [label="X[178] <= 0.5\nentropy = 0.1266\nsamples = 4538\nvalue = [4459, 79]"] ;
680 -> 681 ;
682 [label="X[0] <= 76.5\nentropy = 0.1081\nsamples = 2799\nvalue = [2759, 40]"] ;
681 -> 682 ;
683 [label="X[349] <= 0.5\nentropy = 0.1236\nsamples = 2308\nvalue = [2269, 39]"] ;
682 -> 683 ;
684 [label="X[9] <= 0.5\nentropy = 0.1212\nsamples = 2306\nvalue = [2268, 38]"] ;
683 -> 684 ;
685 [label="X[7] <= 3321.8\nentropy = 0.1166\nsamples = 2291\nvalue = [2255, 36]"] ;
684 -> 685 ;
686 [label="X[7] <= 2542.135\nentropy = 0.1061\nsamples = 2147\nvalue = [2117, 30]"] ;
685 -> 686 ;
687 [label="X[7] <= 2535.635\nentropy = 0.1155\nsamples = 1932\nvalue = [1902, 30]"] ;
686 -> 687 ;
688 [label="X[122] <= 0.5\nentropy = 0.1094\nsamples = 1929\nvalue = [1901, 28]"] ;
687 -> 688 ;
689 [label="X[0] <= 64.5\nentropy = 0.1064\nsamples = 1925\nvalue = [1898, 27]"] ;
688 -> 689 ;
690 [label="X[7] <= 407.3\nentropy = 0.1418\nsamples = 897\nvalue = [879, 18]"] ;
689 -> 690 ;
691 [label="X[7] <= 402.875\nentropy = 0.3776\nsamples = 41\nvalue = [38, 3]"] ;
690 -> 691 ;
692 [label="X[7] <= 334.585\nentropy = 0.2864\nsamples = 40\nvalue = [38, 2]"] ;
691 -> 692 ;
693 [label="entropy = 0.0\nsamples = 23\nvalue = [23, 0]"] ;
692 -> 693 ;
694 [label="X[7] <= 339.895\nentropy = 0.5226\nsamples = 17\nvalue = [15, 2]"] ;
692 -> 694 ;
695 [label="entropy = 0.0\nsamples = 1\nvalue = [0, 1]"] ;
694 -> 695 ;
696 [label="X[218] <= 0.5\nentropy = 0.3373\nsamples = 16\nvalue = [15, 1]"] ;
694 -> 696 ;
697 [label="entropy = 0.0\nsamples = 14\nvalue = [14, 0]"] ;
696 -> 697 ;
698 [label="X[67] <= 0.5\nentropy = 1.0\nsamples = 2\nvalue = [1, 1]"] ;
696 -> 698 ;
699 [label="entropy = 0.0\nsamples = 1\nvalue = [1, 0]"] ;
698 -> 699 ;
700 [label="entropy = 0.0\nsamples = 1\nvalue = [0, 1]"] ;
698 -> 700 ;
701 [label="entropy = 0.0\nsamples = 1\nvalue = [0, 1]"] ;
691 -> 701 ;
702 [label="X[7] <= 982.36\nentropy = 0.1273\nsamples = 856\nvalue = [841, 15]"] ;
690 -> 702 ;
703 [label="entropy = 0.0\nsamples = 146\nvalue = [146, 0]"] ;
702 -> 703 ;
704 [label="X[7] <= 990.245\nentropy = 0.1477\nsamples = 710\nvalue = [695, 15]"] ;
702 -> 704 ;
705 [label="X[7] <= 983.23\nentropy = 0.9183\nsamples = 6\nvalue = [4, 2]"] ;
704 -> 705 ;
706 [label="entropy = 0.0\nsamples = 1\nvalue = [0, 1]"] ;
705 -> 706 ;
707 [label="X[0] <= 54.5\nentropy = 0.7219\nsamples = 5\nvalue = [4, 1]"] ;
705 -> 707 ;
708 [label="entropy = 0.0\nsamples = 1\nvalue = [0, 1]"] ;
707 -> 708 ;
709 [label="entropy = 0.0\nsamples = 4\nvalue = [4, 0]"] ;
707 -> 709 ;
710 [label="X[210] <= 0.5\nentropy = 0.1327\nsamples = 704\nvalue = [691, 13]"] ;
704 -> 710 ;
711 [label="X[7] <= 1857.8101\nentropy = 0.1115\nsamples = 673\nvalue = [663, 10]"] ;
710 -> 711 ;
712 [label="X[7] <= 1857.5549\nentropy = 0.1554\nsamples = 444\nvalue = [434, 10]"] ;
711 -> 712 ;
713 [label="X[245] <= 0.5\nentropy = 0.1432\nsamples = 443\nvalue = [434, 9]"] ;
712 -> 713 ;
714 [label="X[300] <= 0.5\nentropy = 0.1311\nsamples = 440\nvalue = [432, 8]"] ;
713 -> 714 ;
715 [label="X[7] <= 1215.355\nentropy = 0.1187\nsamples = 436\nvalue = [429, 7]"] ;
714 -> 715 ;
716 [label="X[7] <= 1214.0601\nentropy = 0.2318\nsamples = 106\nvalue = [102, 4]"] ;
715 -> 716 ;
717 [label="X[0] <= 48.5\nentropy = 0.1872\nsamples = 105\nvalue = [102, 3]"] ;
716 -> 717 ;
718 [label="X[0] <= 46.5\nentropy = 0.469\nsamples = 20\nvalue = [18, 2]"] ;
717 -> 718 ;
719 [label="entropy = 0.0\nsamples = 12\nvalue = [12, 0]"] ;
718 -> 719 ;
720 [label="X[7] <= 1049.455\nentropy = 0.8113\nsamples = 8\nvalue = [6, 2]"] ;
718 -> 720 ;
721 [label="entropy = 0.0\nsamples = 2\nvalue = [2, 0]"] ;
720 -> 721 ;
722 [label="X[0] <= 47.5\nentropy = 0.9183\nsamples = 6\nvalue = [4, 2]"] ;
720 -> 722 ;
723 [label="entropy = 0.0\nsamples = 1\nvalue = [0, 1]"] ;
722 -> 723 ;
724 [label="X[7] <= 1071.895\nentropy = 0.7219\nsamples = 5\nvalue = [4, 1]"] ;
722 -> 724 ;
725 [label="entropy = 0.0\nsamples = 1\nvalue = [0, 1]"] ;
724 -> 725 ;
726 [label="entropy = 0.0\nsamples = 4\nvalue = [4, 0]"] ;
724 -> 726 ;
727 [label="X[7] <= 1108.465\nentropy = 0.0923\nsamples = 85\nvalue = [84, 1]"] ;
717 -> 727 ;
728 [label="entropy = 0.0\nsamples = 45\nvalue = [45, 0]"] ;
727 -> 728 ;
729 [label="X[7] <= 1110.3101\nentropy = 0.1687\nsamples = 40\nvalue = [39, 1]"] ;
727 -> 729 ;
730 [label="entropy = 0.0\nsamples = 1\nvalue = [0, 1]"] ;
729 -> 730 ;
731 [label="entropy = 0.0\nsamples = 39\nvalue = [39, 0]"] ;
729 -> 731 ;
732 [label="entropy = 0.0\nsamples = 1\nvalue = [0, 1]"] ;
716 -> 732 ;
733 [label="X[0] <= 60.5\nentropy = 0.0747\nsamples = 330\nvalue = [327, 3]"] ;
715 -> 733 ;
734 [label="entropy = 0.0\nsamples = 208\nvalue = [208, 0]"] ;
733 -> 734 ;
735 [label="X[372] <= 0.5\nentropy = 0.1665\nsamples = 122\nvalue = [119, 3]"] ;
733 -> 735 ;
736 [label="X[302] <= 0.5\nentropy = 0.3912\nsamples = 26\nvalue = [24, 2]"] ;
735 -> 736 ;
737 [label="X[7] <= 1753.97\nentropy = 0.2499\nsamples = 24\nvalue = [23, 1]"] ;
736 -> 737 ;
738 [label="entropy = 0.0\nsamples = 20\nvalue = [20, 0]"] ;
737 -> 738 ;
739 [label="X[7] <= 1773.085\nentropy = 0.8113\nsamples = 4\nvalue = [3, 1]"] ;
737 -> 739 ;
740 [label="entropy = 0.0\nsamples = 1\nvalue = [0, 1]"] ;
739 -> 740 ;
741 [label="entropy = 0.0\nsamples = 3\nvalue = [3, 0]"] ;
739 -> 741 ;
742 [label="X[12] <= 94.5\nentropy = 1.0\nsamples = 2\nvalue = [1, 1]"] ;
736 -> 742 ;
743 [label="entropy = 0.0\nsamples = 1\nvalue = [0, 1]"] ;
742 -> 743 ;
744 [label="entropy = 0.0\nsamples = 1\nvalue = [1, 0]"] ;
742 -> 744 ;
745 [label="X[7] <= 1644.975\nentropy = 0.0835\nsamples = 96\nvalue = [95, 1]"] ;
735 -> 745 ;
746 [label="entropy = 0.0\nsamples = 55\nvalue = [55, 0]"] ;
745 -> 746 ;
747 [label="X[7] <= 1653.1851\nentropy = 0.1654\nsamples = 41\nvalue = [40, 1]"] ;
745 -> 747 ;
748 [label="X[0] <= 63.5\nentropy = 1.0\nsamples = 2\nvalue = [1, 1]"] ;
747 -> 748 ;
749 [label="entropy = 0.0\nsamples = 1\nvalue = [0, 1]"] ;
748 -> 749 ;
750 [label="entropy = 0.0\nsamples = 1\nvalue = [1, 0]"] ;
748 -> 750 ;
751 [label="entropy = 0.0\nsamples = 39\nvalue = [39, 0]"] ;
747 -> 751 ;
752 [label="X[318] <= 0.5\nentropy = 0.8113\nsamples = 4\nvalue = [3, 1]"] ;
714 -> 752 ;
753 [label="entropy = 0.0\nsamples = 3\nvalue = [3, 0]"] ;
752 -> 753 ;
754 [label="entropy = 0.0\nsamples = 1\nvalue = [0, 1]"] ;
752 -> 754 ;
755 [label="X[7] <= 1506.015\nentropy = 0.9183\nsamples = 3\nvalue = [2, 1]"] ;
713 -> 755 ;
756 [label="entropy = 0.0\nsamples = 1\nvalue = [0, 1]"] ;
755 -> 756 ;
757 [label="entropy = 0.0\nsamples = 2\nvalue = [2, 0]"] ;
755 -> 757 ;
758 [label="entropy = 0.0\nsamples = 1\nvalue = [0, 1]"] ;
712 -> 758 ;
759 [label="entropy = 0.0\nsamples = 229\nvalue = [229, 0]"] ;
711 -> 759 ;
760 [label="X[250] <= 0.5\nentropy = 0.4587\nsamples = 31\nvalue = [28, 3]"] ;
710 -> 760 ;
761 [label="entropy = 0.0\nsamples = 18\nvalue = [18, 0]"] ;
760 -> 761 ;
762 [label="X[0] <= 63.0\nentropy = 0.7793\nsamples = 13\nvalue = [10, 3]"] ;
760 -> 762 ;
763 [label="X[302] <= 0.5\nentropy = 0.4395\nsamples = 11\nvalue = [10, 1]"] ;
762 -> 763 ;
764 [label="entropy = 0.0\nsamples = 10\nvalue = [10, 0]"] ;
763 -> 764 ;
765 [label="entropy = 0.0\nsamples = 1\nvalue = [0, 1]"] ;
763 -> 765 ;
766 [label="entropy = 0.0\nsamples = 2\nvalue = [0, 2]"] ;
762 -> 766 ;
767 [label="X[7] <= 1878.47\nentropy = 0.0724\nsamples = 1028\nvalue = [1019, 9]"] ;
689 -> 767 ;
768 [label="X[7] <= 923.53\nentropy = 0.0457\nsamples = 795\nvalue = [791, 4]"] ;
767 -> 768 ;
769 [label="X[7] <= 915.57\nentropy = 0.1119\nsamples = 201\nvalue = [198, 3]"] ;
768 -> 769 ;
770 [label="X[70] <= 0.5\nentropy = 0.0458\nsamples = 198\nvalue = [197, 1]"] ;
769 -> 770 ;
771 [label="entropy = 0.0\nsamples = 185\nvalue = [185, 0]"] ;
770 -> 771 ;
772 [label="X[0] <= 68.0\nentropy = 0.3912\nsamples = 13\nvalue = [12, 1]"] ;
770 -> 772 ;
773 [label="entropy = 0.0\nsamples = 1\nvalue = [0, 1]"] ;
772 -> 773 ;
774 [label="entropy = 0.0\nsamples = 12\nvalue = [12, 0]"] ;
772 -> 774 ;
775 [label="X[70] <= 0.5\nentropy = 0.9183\nsamples = 3\nvalue = [1, 2]"] ;
769 -> 775 ;
776 [label="entropy = 0.0\nsamples = 2\nvalue = [0, 2]"] ;
775 -> 776 ;
777 [label="entropy = 0.0\nsamples = 1\nvalue = [1, 0]"] ;
775 -> 777 ;
778 [label="X[7] <= 1697.23\nentropy = 0.0179\nsamples = 594\nvalue = [593, 1]"] ;
768 -> 778 ;
779 [label="entropy = 0.0\nsamples = 455\nvalue = [455, 0]"] ;
778 -> 779 ;
780 [label="X[7] <= 1698.105\nentropy = 0.0616\nsamples = 139\nvalue = [138, 1]"] ;
778 -> 780 ;
781 [label="entropy = 0.0\nsamples = 1\nvalue = [0, 1]"] ;
780 -> 781 ;
782 [label="entropy = 0.0\nsamples = 138\nvalue = [138, 0]"] ;
780 -> 782 ;
783 [label="X[7] <= 1885.4651\nentropy = 0.1496\nsamples = 233\nvalue = [228, 5]"] ;
767 -> 783 ;
784 [label="entropy = 0.0\nsamples = 2\nvalue = [0, 2]"] ;
783 -> 784 ;
785 [label="X[232] <= 0.5\nentropy = 0.1\nsamples = 231\nvalue = [228, 3]"] ;
783 -> 785 ;
786 [label="entropy = 0.0\nsamples = 120\nvalue = [120, 0]"] ;
785 -> 786 ;
787 [label="X[7] <= 1896.705\nentropy = 0.1793\nsamples = 111\nvalue = [108, 3]"] ;
785 -> 787 ;
788 [label="X[5] <= 209.5\nentropy = 0.8113\nsamples = 4\nvalue = [3, 1]"] ;
787 -> 788 ;
789 [label="entropy = 0.0\nsamples = 3\nvalue = [3, 0]"] ;
788 -> 789 ;
790 [label="entropy = 0.0\nsamples = 1\nvalue = [0, 1]"] ;
788 -> 790 ;
791 [label="X[227] <= 0.5\nentropy = 0.134\nsamples = 107\nvalue = [105, 2]"] ;
787 -> 791 ;
792 [label="X[0] <= 68.5\nentropy = 0.0815\nsamples = 99\nvalue = [98, 1]"] ;
791 -> 792 ;
793 [label="X[0] <= 67.5\nentropy = 0.2006\nsamples = 32\nvalue = [31, 1]"] ;
792 -> 793 ;
794 [label="entropy = 0.0\nsamples = 26\nvalue = [26, 0]"] ;
793 -> 794 ;
795 [label="X[7] <= 2194.7749\nentropy = 0.65\nsamples = 6\nvalue = [5, 1]"] ;
793 -> 795 ;
796 [label="entropy = 0.0\nsamples = 4\nvalue = [4, 0]"] ;
795 -> 796 ;
797 [label="X[7] <= 2308.72\nentropy = 1.0\nsamples = 2\nvalue = [1, 1]"] ;
795 -> 797 ;
798 [label="entropy = 0.0\nsamples = 1\nvalue = [0, 1]"] ;
797 -> 798 ;
799 [label="entropy = 0.0\nsamples = 1\nvalue = [1, 0]"] ;
797 -> 799 ;
800 [label="entropy = 0.0\nsamples = 67\nvalue = [67, 0]"] ;
792 -> 800 ;
801 [label="X[7] <= 2057.4351\nentropy = 0.5436\nsamples = 8\nvalue = [7, 1]"] ;
791 -> 801 ;
802 [label="X[7] <= 1973.21\nentropy = 1.0\nsamples = 2\nvalue = [1, 1]"] ;
801 -> 802 ;
803 [label="entropy = 0.0\nsamples = 1\nvalue = [1, 0]"] ;
802 -> 803 ;
804 [label="entropy = 0.0\nsamples = 1\nvalue = [0, 1]"] ;
802 -> 804 ;
805 [label="entropy = 0.0\nsamples = 6\nvalue = [6, 0]"] ;
801 -> 805 ;
806 [label="X[0] <= 68.0\nentropy = 0.8113\nsamples = 4\nvalue = [3, 1]"] ;
688 -> 806 ;
807 [label="entropy = 0.0\nsamples = 1\nvalue = [0, 1]"] ;
806 -> 807 ;
808 [label="entropy = 0.0\nsamples = 3\nvalue = [3, 0]"] ;
806 -> 808 ;
809 [label="X[290] <= 0.5\nentropy = 0.9183\nsamples = 3\nvalue = [1, 2]"] ;
687 -> 809 ;
810 [label="entropy = 0.0\nsamples = 1\nvalue = [1, 0]"] ;
809 -> 810 ;
811 [label="entropy = 0.0\nsamples = 2\nvalue = [0, 2]"] ;
809 -> 811 ;
812 [label="entropy = 0.0\nsamples = 215\nvalue = [215, 0]"] ;
686 -> 812 ;
813 [label="X[67] <= 0.5\nentropy = 0.2499\nsamples = 144\nvalue = [138, 6]"] ;
685 -> 813 ;
814 [label="X[217] <= 0.5\nentropy = 0.9183\nsamples = 12\nvalue = [8, 4]"] ;
813 -> 814 ;
815 [label="X[103] <= 0.5\nentropy = 0.7219\nsamples = 10\nvalue = [8, 2]"] ;
814 -> 815 ;
816 [label="X[101] <= 0.5\nentropy = 0.5033\nsamples = 9\nvalue = [8, 1]"] ;
815 -> 816 ;
817 [label="entropy = 0.0\nsamples = 7\nvalue = [7, 0]"] ;
816 -> 817 ;
818 [label="X[7] <= 3648.0298\nentropy = 1.0\nsamples = 2\nvalue = [1, 1]"] ;
816 -> 818 ;
819 [label="entropy = 0.0\nsamples = 1\nvalue = [1, 0]"] ;
818 -> 819 ;
820 [label="entropy = 0.0\nsamples = 1\nvalue = [0, 1]"] ;
818 -> 820 ;
821 [label="entropy = 0.0\nsamples = 1\nvalue = [0, 1]"] ;
815 -> 821 ;
822 [label="entropy = 0.0\nsamples = 2\nvalue = [0, 2]"] ;
814 -> 822 ;
823 [label="X[7] <= 3323.2051\nentropy = 0.1133\nsamples = 132\nvalue = [130, 2]"] ;
813 -> 823 ;
824 [label="entropy = 0.0\nsamples = 1\nvalue = [0, 1]"] ;
823 -> 824 ;
825 [label="X[6] <= 115.0\nentropy = 0.0647\nsamples = 131\nvalue = [130, 1]"] ;
823 -> 825 ;
826 [label="entropy = 0.0\nsamples = 128\nvalue = [128, 0]"] ;
825 -> 826 ;
827 [label="X[292] <= 0.5\nentropy = 0.9183\nsamples = 3\nvalue = [2, 1]"] ;
825 -> 827 ;
828 [label="entropy = 0.0\nsamples = 2\nvalue = [2, 0]"] ;
827 -> 828 ;
829 [label="entropy = 0.0\nsamples = 1\nvalue = [0, 1]"] ;
827 -> 829 ;
830 [label="X[9] <= 1.5\nentropy = 0.5665\nsamples = 15\nvalue = [13, 2]"] ;
684 -> 830 ;
831 [label="X[218] <= 0.5\nentropy = 0.9183\nsamples = 6\nvalue = [4, 2]"] ;
830 -> 831 ;
832 [label="entropy = 0.0\nsamples = 3\nvalue = [3, 0]"] ;
831 -> 832 ;
833 [label="X[281] <= 0.5\nentropy = 0.9183\nsamples = 3\nvalue = [1, 2]"] ;
831 -> 833 ;
834 [label="entropy = 0.0\nsamples = 1\nvalue = [1, 0]"] ;
833 -> 834 ;
835 [label="entropy = 0.0\nsamples = 2\nvalue = [0, 2]"] ;
833 -> 835 ;
836 [label="entropy = 0.0\nsamples = 9\nvalue = [9, 0]"] ;
830 -> 836 ;
837 [label="X[48] <= 0.5\nentropy = 1.0\nsamples = 2\nvalue = [1, 1]"] ;
683 -> 837 ;
838 [label="entropy = 0.0\nsamples = 1\nvalue = [1, 0]"] ;
837 -> 838 ;
839 [label="entropy = 0.0\nsamples = 1\nvalue = [0, 1]"] ;
837 -> 839 ;
840 [label="X[302] <= 0.5\nentropy = 0.0211\nsamples = 491\nvalue = [490, 1]"] ;
682 -> 840 ;
841 [label="entropy = 0.0\nsamples = 463\nvalue = [463, 0]"] ;
840 -> 841 ;
842 [label="X[7] <= 2674.04\nentropy = 0.2223\nsamples = 28\nvalue = [27, 1]"] ;
840 -> 842 ;
843 [label="entropy = 0.0\nsamples = 23\nvalue = [23, 0]"] ;
842 -> 843 ;
844 [label="X[7] <= 2854.4448\nentropy = 0.7219\nsamples = 5\nvalue = [4, 1]"] ;
842 -> 844 ;
845 [label="entropy = 0.0\nsamples = 1\nvalue = [0, 1]"] ;
844 -> 845 ;
846 [label="entropy = 0.0\nsamples = 4\nvalue = [4, 0]"] ;
844 -> 846 ;
847 [label="X[0] <= 43.5\nentropy = 0.1549\nsamples = 1739\nvalue = [1700, 39]"] ;
681 -> 847 ;
848 [label="entropy = 0.0\nsamples = 1\nvalue = [0, 1]"] ;
847 -> 848 ;
849 [label="X[353] <= 0.5\nentropy = 0.1518\nsamples = 1738\nvalue = [1700, 38]"] ;
847 -> 849 ;
850 [label="X[5] <= 1418.5\nentropy = 0.1488\nsamples = 1735\nvalue = [1698, 37]"] ;
849 -> 850 ;
851 [label="X[7] <= 921.35\nentropy = 0.1417\nsamples = 1696\nvalue = [1662, 34]"] ;
850 -> 851 ;
852 [label="X[7] <= 912.42\nentropy = 0.2373\nsamples = 257\nvalue = [247, 10]"] ;
851 -> 852 ;
853 [label="X[0] <= 67.5\nentropy = 0.2018\nsamples = 254\nvalue = [246, 8]"] ;
852 -> 853 ;
854 [label="entropy = 0.0\nsamples = 67\nvalue = [67, 0]"] ;
853 -> 854 ;
855 [label="X[7] <= 811.655\nentropy = 0.2549\nsamples = 187\nvalue = [179, 8]"] ;
853 -> 855 ;
856 [label="X[7] <= 716.83\nentropy = 0.3064\nsamples = 146\nvalue = [138, 8]"] ;
855 -> 856 ;
857 [label="X[7] <= 428.165\nentropy = 0.1623\nsamples = 126\nvalue = [123, 3]"] ;
856 -> 857 ;
858 [label="X[7] <= 426.91\nentropy = 0.2864\nsamples = 60\nvalue = [57, 3]"] ;
857 -> 858 ;
859 [label="X[205] <= 0.5\nentropy = 0.2136\nsamples = 59\nvalue = [57, 2]"] ;
858 -> 859 ;
860 [label="X[70] <= 0.5\nentropy = 0.1274\nsamples = 57\nvalue = [56, 1]"] ;
859 -> 860 ;
861 [label="entropy = 0.0\nsamples = 53\nvalue = [53, 0]"] ;
860 -> 861 ;
862 [label="X[209] <= 0.5\nentropy = 0.8113\nsamples = 4\nvalue = [3, 1]"] ;
860 -> 862 ;
863 [label="entropy = 0.0\nsamples = 3\nvalue = [3, 0]"] ;
862 -> 863 ;
864 [label="entropy = 0.0\nsamples = 1\nvalue = [0, 1]"] ;
862 -> 864 ;
865 [label="X[27] <= 0.5\nentropy = 1.0\nsamples = 2\nvalue = [1, 1]"] ;
859 -> 865 ;
866 [label="entropy = 0.0\nsamples = 1\nvalue = [0, 1]"] ;
865 -> 866 ;
867 [label="entropy = 0.0\nsamples = 1\nvalue = [1, 0]"] ;
865 -> 867 ;
868 [label="entropy = 0.0\nsamples = 1\nvalue = [0, 1]"] ;
858 -> 868 ;
869 [label="entropy = 0.0\nsamples = 66\nvalue = [66, 0]"] ;
857 -> 869 ;
870 [label="X[7] <= 721.82\nentropy = 0.8113\nsamples = 20\nvalue = [15, 5]"] ;
856 -> 870 ;
871 [label="entropy = 0.0\nsamples = 1\nvalue = [0, 1]"] ;
870 -> 871 ;
872 [label="X[7] <= 798.69\nentropy = 0.7425\nsamples = 19\nvalue = [15, 4]"] ;
870 -> 872 ;
873 [label="X[7] <= 726.865\nentropy = 0.3912\nsamples = 13\nvalue = [12, 1]"] ;
872 -> 873 ;
874 [label="X[214] <= 0.5\nentropy = 1.0\nsamples = 2\nvalue = [1, 1]"] ;
873 -> 874 ;
875 [label="entropy = 0.0\nsamples = 1\nvalue = [0, 1]"] ;
874 -> 875 ;
876 [label="entropy = 0.0\nsamples = 1\nvalue = [1, 0]"] ;
874 -> 876 ;
877 [label="entropy = 0.0\nsamples = 11\nvalue = [11, 0]"] ;
873 -> 877 ;
878 [label="X[29] <= 0.5\nentropy = 1.0\nsamples = 6\nvalue = [3, 3]"] ;
872 -> 878 ;
879 [label="X[12] <= 94.5\nentropy = 0.8113\nsamples = 4\nvalue = [1, 3]"] ;
878 -> 879 ;
880 [label="entropy = 0.0\nsamples = 1\nvalue = [1, 0]"] ;
879 -> 880 ;
881 [label="entropy = 0.0\nsamples = 3\nvalue = [0, 3]"] ;
879 -> 881 ;
882 [label="entropy = 0.0\nsamples = 2\nvalue = [2, 0]"] ;
878 -> 882 ;
883 [label="entropy = 0.0\nsamples = 41\nvalue = [41, 0]"] ;
855 -> 883 ;
884 [label="X[0] <= 70.5\nentropy = 0.9183\nsamples = 3\nvalue = [1, 2]"] ;
852 -> 884 ;
885 [label="entropy = 0.0\nsamples = 1\nvalue = [1, 0]"] ;
884 -> 885 ;
886 [label="entropy = 0.0\nsamples = 2\nvalue = [0, 2]"] ;
884 -> 886 ;
887 [label="X[7] <= 1115.9451\nentropy = 0.1224\nsamples = 1439\nvalue = [1415, 24]"] ;
851 -> 887 ;
888 [label="entropy = 0.0\nsamples = 165\nvalue = [165, 0]"] ;
887 -> 888 ;
889 [label="X[7] <= 1116.53\nentropy = 0.1349\nsamples = 1274\nvalue = [1250, 24]"] ;
887 -> 889 ;
890 [label="entropy = 0.0\nsamples = 1\nvalue = [0, 1]"] ;
889 -> 890 ;
891 [label="X[11] <= 7.5\nentropy = 0.1304\nsamples = 1273\nvalue = [1250, 23]"] ;
889 -> 891 ;
892 [label="X[232] <= 0.5\nentropy = 0.119\nsamples = 1242\nvalue = [1222, 20]"] ;
891 -> 892 ;
893 [label="X[0] <= 74.5\nentropy = 0.0663\nsamples = 636\nvalue = [631, 5]"] ;
892 -> 893 ;
894 [label="entropy = 0.0\nsamples = 358\nvalue = [358, 0]"] ;
893 -> 894 ;
895 [label="X[7] <= 1851.345\nentropy = 0.13\nsamples = 278\nvalue = [273, 5]"] ;
893 -> 895 ;
896 [label="X[7] <= 1845.76\nentropy = 0.1959\nsamples = 165\nvalue = [160, 5]"] ;
895 -> 896 ;
897 [label="X[7] <= 1254.74\nentropy = 0.1654\nsamples = 164\nvalue = [160, 4]"] ;
896 -> 897 ;
898 [label="X[7] <= 1205.3149\nentropy = 0.4855\nsamples = 19\nvalue = [17, 2]"] ;
897 -> 898 ;
899 [label="entropy = 0.0\nsamples = 14\nvalue = [14, 0]"] ;
898 -> 899 ;
900 [label="X[218] <= 0.5\nentropy = 0.971\nsamples = 5\nvalue = [3, 2]"] ;
898 -> 900 ;
901 [label="X[7] <= 1221.5801\nentropy = 0.8113\nsamples = 4\nvalue = [3, 1]"] ;
900 -> 901 ;
902 [label="entropy = 0.0\nsamples = 1\nvalue = [0, 1]"] ;
901 -> 902 ;
903 [label="entropy = 0.0\nsamples = 3\nvalue = [3, 0]"] ;
901 -> 903 ;
904 [label="entropy = 0.0\nsamples = 1\nvalue = [0, 1]"] ;
900 -> 904 ;
905 [label="X[10] <= 1.5\nentropy = 0.105\nsamples = 145\nvalue = [143, 2]"] ;
897 -> 905 ;
906 [label="X[7] <= 1756.485\nentropy = 0.7219\nsamples = 5\nvalue = [4, 1]"] ;
905 -> 906 ;
907 [label="entropy = 0.0\nsamples = 4\nvalue = [4, 0]"] ;
906 -> 907 ;
908 [label="entropy = 0.0\nsamples = 1\nvalue = [0, 1]"] ;
906 -> 908 ;
909 [label="X[7] <= 1663.28\nentropy = 0.0612\nsamples = 140\nvalue = [139, 1]"] ;
905 -> 909 ;
910 [label="entropy = 0.0\nsamples = 86\nvalue = [86, 0]"] ;
909 -> 910 ;
911 [label="X[7] <= 1666.2051\nentropy = 0.133\nsamples = 54\nvalue = [53, 1]"] ;
909 -> 911 ;
912 [label="entropy = 0.0\nsamples = 1\nvalue = [0, 1]"] ;
911 -> 912 ;
913 [label="entropy = 0.0\nsamples = 53\nvalue = [53, 0]"] ;
911 -> 913 ;
914 [label="entropy = 0.0\nsamples = 1\nvalue = [0, 1]"] ;
896 -> 914 ;
915 [label="entropy = 0.0\nsamples = 113\nvalue = [113, 0]"] ;
895 -> 915 ;
916 [label="X[148] <= 0.5\nentropy = 0.1674\nsamples = 606\nvalue = [591, 15]"] ;
892 -> 916 ;
917 [label="X[7] <= 2964.5649\nentropy = 0.1591\nsamples = 603\nvalue = [589, 14]"] ;
916 -> 917 ;
918 [label="X[7] <= 2952.8601\nentropy = 0.1801\nsamples = 515\nvalue = [501, 14]"] ;
917 -> 918 ;
919 [label="X[318] <= 0.5\nentropy = 0.1702\nsamples = 514\nvalue = [501, 13]"] ;
918 -> 919 ;
920 [label="X[7] <= 2272.8501\nentropy = 0.1181\nsamples = 376\nvalue = [370, 6]"] ;
919 -> 920 ;
921 [label="X[295] <= 0.5\nentropy = 0.0556\nsamples = 314\nvalue = [312, 2]"] ;
920 -> 921 ;
922 [label="X[7] <= 1148.9299\nentropy = 0.0312\nsamples = 312\nvalue = [311, 1]"] ;
921 -> 922 ;
923 [label="X[302] <= 0.5\nentropy = 0.5917\nsamples = 7\nvalue = [6, 1]"] ;
922 -> 923 ;
924 [label="entropy = 0.0\nsamples = 6\nvalue = [6, 0]"] ;
923 -> 924 ;
925 [label="entropy = 0.0\nsamples = 1\nvalue = [0, 1]"] ;
923 -> 925 ;
926 [label="entropy = 0.0\nsamples = 305\nvalue = [305, 0]"] ;
922 -> 926 ;
927 [label="X[7] <= 1411.14\nentropy = 1.0\nsamples = 2\nvalue = [1, 1]"] ;
921 -> 927 ;
928 [label="entropy = 0.0\nsamples = 1\nvalue = [1, 0]"] ;
927 -> 928 ;
929 [label="entropy = 0.0\nsamples = 1\nvalue = [0, 1]"] ;
927 -> 929 ;
930 [label="X[6] <= 87.5\nentropy = 0.3451\nsamples = 62\nvalue = [58, 4]"] ;
920 -> 930 ;
931 [label="X[10] <= 1.5\nentropy = 0.2829\nsamples = 61\nvalue = [58, 3]"] ;
930 -> 931 ;
932 [label="X[7] <= 2754.8901\nentropy = 1.0\nsamples = 2\nvalue = [1, 1]"] ;
931 -> 932 ;
933 [label="entropy = 0.0\nsamples = 1\nvalue = [1, 0]"] ;
932 -> 933 ;
934 [label="entropy = 0.0\nsamples = 1\nvalue = [0, 1]"] ;
932 -> 934 ;
935 [label="X[7] <= 2635.3101\nentropy = 0.2136\nsamples = 59\nvalue = [57, 2]"] ;
931 -> 935 ;
936 [label="X[7] <= 2628.1201\nentropy = 0.3712\nsamples = 28\nvalue = [26, 2]"] ;
935 -> 936 ;
937 [label="X[0] <= 76.5\nentropy = 0.2285\nsamples = 27\nvalue = [26, 1]"] ;
936 -> 937 ;
938 [label="entropy = 0.0\nsamples = 19\nvalue = [19, 0]"] ;
937 -> 938 ;
939 [label="X[0] <= 78.0\nentropy = 0.5436\nsamples = 8\nvalue = [7, 1]"] ;
937 -> 939 ;
940 [label="X[7] <= 2417.73\nentropy = 1.0\nsamples = 2\nvalue = [1, 1]"] ;
939 -> 940 ;
941 [label="entropy = 0.0\nsamples = 1\nvalue = [0, 1]"] ;
940 -> 941 ;
942 [label="entropy = 0.0\nsamples = 1\nvalue = [1, 0]"] ;
940 -> 942 ;
943 [label="entropy = 0.0\nsamples = 6\nvalue = [6, 0]"] ;
939 -> 943 ;
944 [label="entropy = 0.0\nsamples = 1\nvalue = [0, 1]"] ;
936 -> 944 ;
945 [label="entropy = 0.0\nsamples = 31\nvalue = [31, 0]"] ;
935 -> 945 ;
946 [label="entropy = 0.0\nsamples = 1\nvalue = [0, 1]"] ;
930 -> 946 ;
947 [label="X[7] <= 1981.48\nentropy = 0.2895\nsamples = 138\nvalue = [131, 7]"] ;
919 -> 947 ;
948 [label="X[7] <= 1634.265\nentropy = 0.3912\nsamples = 91\nvalue = [84, 7]"] ;
947 -> 948 ;
949 [label="X[27] <= 0.5\nentropy = 0.1371\nsamples = 52\nvalue = [51, 1]"] ;
948 -> 949 ;
950 [label="entropy = 0.0\nsamples = 47\nvalue = [47, 0]"] ;
949 -> 950 ;
951 [label="X[0] <= 84.5\nentropy = 0.7219\nsamples = 5\nvalue = [4, 1]"] ;
949 -> 951 ;
952 [label="entropy = 0.0\nsamples = 4\nvalue = [4, 0]"] ;
951 -> 952 ;
953 [label="entropy = 0.0\nsamples = 1\nvalue = [0, 1]"] ;
951 -> 953 ;
954 [label="X[7] <= 1640.125\nentropy = 0.6194\nsamples = 39\nvalue = [33, 6]"] ;
948 -> 954 ;
955 [label="entropy = 0.0\nsamples = 1\nvalue = [0, 1]"] ;
954 -> 955 ;
956 [label="X[7] <= 1969.9399\nentropy = 0.5618\nsamples = 38\nvalue = [33, 5]"] ;
954 -> 956 ;
957 [label="X[0] <= 59.5\nentropy = 0.4942\nsamples = 37\nvalue = [33, 4]"] ;
956 -> 957 ;
958 [label="X[218] <= 0.5\nentropy = 1.0\nsamples = 4\nvalue = [2, 2]"] ;
957 -> 958 ;
959 [label="entropy = 0.0\nsamples = 2\nvalue = [2, 0]"] ;
958 -> 959 ;
960 [label="entropy = 0.0\nsamples = 2\nvalue = [0, 2]"] ;
958 -> 960 ;
961 [label="X[0] <= 87.5\nentropy = 0.3298\nsamples = 33\nvalue = [31, 2]"] ;
957 -> 961 ;
962 [label="X[7] <= 1944.0549\nentropy = 0.2056\nsamples = 31\nvalue = [30, 1]"] ;
961 -> 962 ;
963 [label="entropy = 0.0\nsamples = 27\nvalue = [27, 0]"] ;
962 -> 963 ;
964 [label="X[7] <= 1957.4199\nentropy = 0.8113\nsamples = 4\nvalue = [3, 1]"] ;
962 -> 964 ;
965 [label="entropy = 0.0\nsamples = 1\nvalue = [0, 1]"] ;
964 -> 965 ;
966 [label="entropy = 0.0\nsamples = 3\nvalue = [3, 0]"] ;
964 -> 966 ;
967 [label="X[10] <= 1.5\nentropy = 1.0\nsamples = 2\nvalue = [1, 1]"] ;
961 -> 967 ;
968 [label="entropy = 0.0\nsamples = 1\nvalue = [1, 0]"] ;
967 -> 968 ;
969 [label="entropy = 0.0\nsamples = 1\nvalue = [0, 1]"] ;
967 -> 969 ;
970 [label="entropy = 0.0\nsamples = 1\nvalue = [0, 1]"] ;
956 -> 970 ;
971 [label="entropy = 0.0\nsamples = 47\nvalue = [47, 0]"] ;
947 -> 971 ;
972 [label="entropy = 0.0\nsamples = 1\nvalue = [0, 1]"] ;
918 -> 972 ;
973 [label="entropy = 0.0\nsamples = 88\nvalue = [88, 0]"] ;
917 -> 973 ;
974 [label="X[318] <= 0.5\nentropy = 0.9183\nsamples = 3\nvalue = [2, 1]"] ;
916 -> 974 ;
975 [label="entropy = 0.0\nsamples = 1\nvalue = [0, 1]"] ;
974 -> 975 ;
976 [label="entropy = 0.0\nsamples = 2\nvalue = [2, 0]"] ;
974 -> 976 ;
977 [label="X[7] <= 1655.4299\nentropy = 0.4587\nsamples = 31\nvalue = [28, 3]"] ;
891 -> 977 ;
978 [label="X[7] <= 1598.3999\nentropy = 0.8113\nsamples = 12\nvalue = [9, 3]"] ;
977 -> 978 ;
979 [label="X[7] <= 1289.895\nentropy = 0.469\nsamples = 10\nvalue = [9, 1]"] ;
978 -> 979 ;
980 [label="X[7] <= 1256.1799\nentropy = 0.9183\nsamples = 3\nvalue = [2, 1]"] ;
979 -> 980 ;
981 [label="entropy = 0.0\nsamples = 2\nvalue = [2, 0]"] ;
980 -> 981 ;
982 [label="entropy = 0.0\nsamples = 1\nvalue = [0, 1]"] ;
980 -> 982 ;
983 [label="entropy = 0.0\nsamples = 7\nvalue = [7, 0]"] ;
979 -> 983 ;
984 [label="entropy = 0.0\nsamples = 2\nvalue = [0, 2]"] ;
978 -> 984 ;
985 [label="entropy = 0.0\nsamples = 19\nvalue = [19, 0]"] ;
977 -> 985 ;
986 [label="X[5] <= 1635.0\nentropy = 0.3912\nsamples = 39\nvalue = [36, 3]"] ;
850 -> 986 ;
987 [label="X[232] <= 0.5\nentropy = 0.9183\nsamples = 9\nvalue = [6, 3]"] ;
986 -> 987 ;
988 [label="X[318] <= 0.5\nentropy = 0.971\nsamples = 5\nvalue = [2, 3]"] ;
987 -> 988 ;
989 [label="X[7] <= 1881.6799\nentropy = 0.9183\nsamples = 3\nvalue = [2, 1]"] ;
988 -> 989 ;
990 [label="entropy = 0.0\nsamples = 1\nvalue = [0, 1]"] ;
989 -> 990 ;
991 [label="entropy = 0.0\nsamples = 2\nvalue = [2, 0]"] ;
989 -> 991 ;
992 [label="entropy = 0.0\nsamples = 2\nvalue = [0, 2]"] ;
988 -> 992 ;
993 [label="entropy = 0.0\nsamples = 4\nvalue = [4, 0]"] ;
987 -> 993 ;
994 [label="entropy = 0.0\nsamples = 30\nvalue = [30, 0]"] ;
986 -> 994 ;
995 [label="X[214] <= 0.5\nentropy = 0.9183\nsamples = 3\nvalue = [2, 1]"] ;
849 -> 995 ;
996 [label="entropy = 0.0\nsamples = 2\nvalue = [2, 0]"] ;
995 -> 996 ;
997 [label="entropy = 0.0\nsamples = 1\nvalue = [0, 1]"] ;
995 -> 997 ;
998 [label="X[0] <= 69.5\nentropy = 0.0782\nsamples = 936\nvalue = [927, 9]"] ;
680 -> 998 ;
999 [label="entropy = 0.0\nsamples = 293\nvalue = [293, 0]"] ;
998 -> 999 ;
1000 [label="X[145] <= 0.5\nentropy = 0.1063\nsamples = 643\nvalue = [634, 9]"] ;
998 -> 1000 ;
1001 [label="X[110] <= 0.5\nentropy = 0.0971\nsamples = 639\nvalue = [631, 8]"] ;
1000 -> 1001 ;
1002 [label="entropy = 0.0\nsamples = 174\nvalue = [174, 0]"] ;
1001 -> 1002 ;
1003 [label="X[246] <= 0.5\nentropy = 0.1254\nsamples = 465\nvalue = [457, 8]"] ;
1001 -> 1003 ;
1004 [label="X[0] <= 81.5\nentropy = 0.1131\nsamples = 463\nvalue = [456, 7]"] ;
1003 -> 1004 ;
1005 [label="X[7] <= 1011.045\nentropy = 0.1468\nsamples = 334\nvalue = [327, 7]"] ;
1004 -> 1005 ;
1006 [label="entropy = 0.0\nsamples = 78\nvalue = [78, 0]"] ;
1005 -> 1006 ;
1007 [label="X[7] <= 1015.7\nentropy = 0.1809\nsamples = 256\nvalue = [249, 7]"] ;
1005 -> 1007 ;
1008 [label="entropy = 0.0\nsamples = 1\nvalue = [0, 1]"] ;
1007 -> 1008 ;
1009 [label="X[7] <= 3013.405\nentropy = 0.1608\nsamples = 255\nvalue = [249, 6]"] ;
1007 -> 1009 ;
1010 [label="X[7] <= 2995.52\nentropy = 0.1774\nsamples = 225\nvalue = [219, 6]"] ;
1009 -> 1010 ;
1011 [label="X[176] <= 0.5\nentropy = 0.1543\nsamples = 224\nvalue = [219, 5]"] ;
1010 -> 1011 ;
1012 [label="entropy = 0.0\nsamples = 83\nvalue = [83, 0]"] ;
1011 -> 1012 ;
1013 [label="X[7] <= 2345.9648\nentropy = 0.2211\nsamples = 141\nvalue = [136, 5]"] ;
1011 -> 1013 ;
1014 [label="X[7] <= 2327.8301\nentropy = 0.2531\nsamples = 118\nvalue = [113, 5]"] ;
1013 -> 1014 ;
1015 [label="X[371] <= 0.5\nentropy = 0.215\nsamples = 117\nvalue = [113, 4]"] ;
1014 -> 1015 ;
1016 [label="entropy = 0.0\nsamples = 28\nvalue = [28, 0]"] ;
1015 -> 1016 ;
1017 [label="X[7] <= 1904.21\nentropy = 0.2645\nsamples = 89\nvalue = [85, 4]"] ;
1015 -> 1017 ;
1018 [label="X[7] <= 1901.245\nentropy = 0.3335\nsamples = 65\nvalue = [61, 4]"] ;
1017 -> 1018 ;
1019 [label="X[0] <= 80.5\nentropy = 0.273\nsamples = 64\nvalue = [61, 3]"] ;
1018 -> 1019 ;
1020 [label="X[0] <= 73.5\nentropy = 0.2056\nsamples = 62\nvalue = [60, 2]"] ;
1019 -> 1020 ;
1021 [label="entropy = 0.0\nsamples = 27\nvalue = [27, 0]"] ;
1020 -> 1021 ;
1022 [label="X[7] <= 1164.72\nentropy = 0.316\nsamples = 35\nvalue = [33, 2]"] ;
1020 -> 1022 ;
1023 [label="X[7] <= 1136.89\nentropy = 0.9183\nsamples = 3\nvalue = [2, 1]"] ;
1022 -> 1023 ;
1024 [label="entropy = 0.0\nsamples = 2\nvalue = [2, 0]"] ;
1023 -> 1024 ;
1025 [label="entropy = 0.0\nsamples = 1\nvalue = [0, 1]"] ;
1023 -> 1025 ;
1026 [label="X[7] <= 1776.105\nentropy = 0.2006\nsamples = 32\nvalue = [31, 1]"] ;
1022 -> 1026 ;
1027 [label="entropy = 0.0\nsamples = 26\nvalue = [26, 0]"] ;
1026 -> 1027 ;
1028 [label="X[7] <= 1790.115\nentropy = 0.65\nsamples = 6\nvalue = [5, 1]"] ;
1026 -> 1028 ;
1029 [label="entropy = 0.0\nsamples = 1\nvalue = [0, 1]"] ;
1028 -> 1029 ;
1030 [label="entropy = 0.0\nsamples = 5\nvalue = [5, 0]"] ;
1028 -> 1030 ;
1031 [label="X[7] <= 1457.33\nentropy = 1.0\nsamples = 2\nvalue = [1, 1]"] ;
1019 -> 1031 ;
1032 [label="entropy = 0.0\nsamples = 1\nvalue = [1, 0]"] ;
1031 -> 1032 ;
1033 [label="entropy = 0.0\nsamples = 1\nvalue = [0, 1]"] ;
1031 -> 1033 ;
1034 [label="entropy = 0.0\nsamples = 1\nvalue = [0, 1]"] ;
1018 -> 1034 ;
1035 [label="entropy = 0.0\nsamples = 24\nvalue = [24, 0]"] ;
1017 -> 1035 ;
1036 [label="entropy = 0.0\nsamples = 1\nvalue = [0, 1]"] ;
1014 -> 1036 ;
1037 [label="entropy = 0.0\nsamples = 23\nvalue = [23, 0]"] ;
1013 -> 1037 ;
1038 [label="entropy = 0.0\nsamples = 1\nvalue = [0, 1]"] ;
1010 -> 1038 ;
1039 [label="entropy = 0.0\nsamples = 30\nvalue = [30, 0]"] ;
1009 -> 1039 ;
1040 [label="entropy = 0.0\nsamples = 129\nvalue = [129, 0]"] ;
1004 -> 1040 ;
1041 [label="X[6] <= 50.0\nentropy = 1.0\nsamples = 2\nvalue = [1, 1]"] ;
1003 -> 1041 ;
1042 [label="entropy = 0.0\nsamples = 1\nvalue = [1, 0]"] ;
1041 -> 1042 ;
1043 [label="entropy = 0.0\nsamples = 1\nvalue = [0, 1]"] ;
1041 -> 1043 ;
1044 [label="X[0] <= 70.5\nentropy = 0.8113\nsamples = 4\nvalue = [3, 1]"] ;
1000 -> 1044 ;
1045 [label="entropy = 0.0\nsamples = 1\nvalue = [0, 1]"] ;
1044 -> 1045 ;
1046 [label="entropy = 0.0\nsamples = 3\nvalue = [3, 0]"] ;
1044 -> 1046 ;
1047 [label="X[0] <= 85.5\nentropy = 0.032\nsamples = 303\nvalue = [302, 1]"] ;
679 -> 1047 ;
1048 [label="entropy = 0.0\nsamples = 284\nvalue = [284, 0]"] ;
1047 -> 1048 ;
1049 [label="X[7] <= 3225.375\nentropy = 0.2975\nsamples = 19\nvalue = [18, 1]"] ;
1047 -> 1049 ;
1050 [label="entropy = 0.0\nsamples = 17\nvalue = [17, 0]"] ;
1049 -> 1050 ;
1051 [label="X[232] <= 0.5\nentropy = 1.0\nsamples = 2\nvalue = [1, 1]"] ;
1049 -> 1051 ;
1052 [label="entropy = 0.0\nsamples = 1\nvalue = [1, 0]"] ;
1051 -> 1052 ;
1053 [label="entropy = 0.0\nsamples = 1\nvalue = [0, 1]"] ;
1051 -> 1053 ;
1054 [label="X[0] <= 54.5\nentropy = 0.0307\nsamples = 318\nvalue = [317, 1]"] ;
678 -> 1054 ;
1055 [label="X[0] <= 53.5\nentropy = 0.2006\nsamples = 32\nvalue = [31, 1]"] ;
1054 -> 1055 ;
1056 [label="entropy = 0.0\nsamples = 27\nvalue = [27, 0]"] ;
1055 -> 1056 ;
1057 [label="X[7] <= 1403.6951\nentropy = 0.7219\nsamples = 5\nvalue = [4, 1]"] ;
1055 -> 1057 ;
1058 [label="entropy = 0.0\nsamples = 2\nvalue = [2, 0]"] ;
1057 -> 1058 ;
1059 [label="X[7] <= 1583.735\nentropy = 0.9183\nsamples = 3\nvalue = [2, 1]"] ;
1057 -> 1059 ;
1060 [label="entropy = 0.0\nsamples = 1\nvalue = [0, 1]"] ;
1059 -> 1060 ;
1061 [label="entropy = 0.0\nsamples = 2\nvalue = [2, 0]"] ;
1059 -> 1061 ;
1062 [label="entropy = 0.0\nsamples = 286\nvalue = [286, 0]"] ;
1054 -> 1062 ;
1063 [label="entropy = 0.0\nsamples = 154\nvalue = [154, 0]"] ;
677 -> 1063 ;
1064 [label="X[302] <= 0.5\nentropy = 0.9183\nsamples = 3\nvalue = [2, 1]"] ;
676 -> 1064 ;
1065 [label="entropy = 0.0\nsamples = 2\nvalue = [2, 0]"] ;
1064 -> 1065 ;
1066 [label="entropy = 0.0\nsamples = 1\nvalue = [0, 1]"] ;
1064 -> 1066 ;
1067 [label="X[49] <= 0.5\nentropy = 0.0317\nsamples = 611\nvalue = [609, 2]"] ;
673 -> 1067 ;
1068 [label="X[229] <= 0.5\nentropy = 0.0177\nsamples = 605\nvalue = [604, 1]"] ;
1067 -> 1068 ;
1069 [label="entropy = 0.0\nsamples = 599\nvalue = [599, 0]"] ;
1068 -> 1069 ;
1070 [label="X[249] <= 0.5\nentropy = 0.65\nsamples = 6\nvalue = [5, 1]"] ;
1068 -> 1070 ;
1071 [label="entropy = 0.0\nsamples = 5\nvalue = [5, 0]"] ;
1070 -> 1071 ;
1072 [label="entropy = 0.0\nsamples = 1\nvalue = [0, 1]"] ;
1070 -> 1072 ;
1073 [label="X[0] <= 63.5\nentropy = 0.65\nsamples = 6\nvalue = [5, 1]"] ;
1067 -> 1073 ;
1074 [label="entropy = 0.0\nsamples = 1\nvalue = [0, 1]"] ;
1073 -> 1074 ;
1075 [label="entropy = 0.0\nsamples = 5\nvalue = [5, 0]"] ;
1073 -> 1075 ;
1076 [label="entropy = 0.0\nsamples = 1\nvalue = [0, 1]"] ;
664 -> 1076 ;
1077 [label="X[289] <= 0.5\nentropy = 0.0317\nsamples = 612\nvalue = [610, 2]"] ;
663 -> 1077 ;
1078 [label="entropy = 0.0\nsamples = 554\nvalue = [554, 0]"] ;
1077 -> 1078 ;
1079 [label="X[9] <= 1.5\nentropy = 0.2164\nsamples = 58\nvalue = [56, 2]"] ;
1077 -> 1079 ;
1080 [label="entropy = 0.0\nsamples = 52\nvalue = [52, 0]"] ;
1079 -> 1080 ;
1081 [label="X[7] <= 2351.4299\nentropy = 0.9183\nsamples = 6\nvalue = [4, 2]"] ;
1079 -> 1081 ;
1082 [label="entropy = 0.0\nsamples = 4\nvalue = [4, 0]"] ;
1081 -> 1082 ;
1083 [label="entropy = 0.0\nsamples = 2\nvalue = [0, 2]"] ;
1081 -> 1083 ;
1084 [label="entropy = 0.0\nsamples = 1\nvalue = [0, 1]"] ;
662 -> 1084 ;
1085 [label="entropy = 0.0\nsamples = 277\nvalue = [277, 0]"] ;
661 -> 1085 ;
1086 [label="X[6] <= 91.5\nentropy = 0.019\nsamples = 556\nvalue = [555, 1]"] ;
660 -> 1086 ;
1087 [label="entropy = 0.0\nsamples = 552\nvalue = [552, 0]"] ;
1086 -> 1087 ;
1088 [label="X[318] <= 0.5\nentropy = 0.8113\nsamples = 4\nvalue = [3, 1]"] ;
1086 -> 1088 ;
1089 [label="entropy = 0.0\nsamples = 1\nvalue = [0, 1]"] ;
1088 -> 1089 ;
1090 [label="entropy = 0.0\nsamples = 3\nvalue = [3, 0]"] ;
1088 -> 1090 ;
1091 [label="X[79] <= 0.5\nentropy = 0.4508\nsamples = 53\nvalue = [48, 5]"] ;
659 -> 1091 ;
1092 [label="X[36] <= 0.5\nentropy = 0.3228\nsamples = 51\nvalue = [48, 3]"] ;
1091 -> 1092 ;
1093 [label="X[7] <= 4776.6602\nentropy = 0.2423\nsamples = 50\nvalue = [48, 2]"] ;
1092 -> 1093 ;
1094 [label="X[11] <= 9.5\nentropy = 0.1437\nsamples = 49\nvalue = [48, 1]"] ;
1093 -> 1094 ;
1095 [label="entropy = 0.0\nsamples = 46\nvalue = [46, 0]"] ;
1094 -> 1095 ;
1096 [label="X[281] <= 0.5\nentropy = 0.9183\nsamples = 3\nvalue = [2, 1]"] ;
1094 -> 1096 ;
1097 [label="entropy = 0.0\nsamples = 2\nvalue = [2, 0]"] ;
1096 -> 1097 ;
1098 [label="entropy = 0.0\nsamples = 1\nvalue = [0, 1]"] ;
1096 -> 1098 ;
1099 [label="entropy = 0.0\nsamples = 1\nvalue = [0, 1]"] ;
1093 -> 1099 ;
1100 [label="entropy = 0.0\nsamples = 1\nvalue = [0, 1]"] ;
1092 -> 1100 ;
1101 [label="entropy = 0.0\nsamples = 2\nvalue = [0, 2]"] ;
1091 -> 1101 ;
1102 [label="X[318] <= 0.5\nentropy = 0.1525\nsamples = 4729\nvalue = [4625, 104]"] ;
652 -> 1102 ;
1103 [label="X[92] <= 0.5\nentropy = 0.0702\nsamples = 1778\nvalue = [1763, 15]"] ;
1102 -> 1103 ;
1104 [label="X[4] <= 4792.0\nentropy = 0.0627\nsamples = 1767\nvalue = [1754, 13]"] ;
1103 -> 1104 ;
1105 [label="X[209] <= 0.5\nentropy = 0.0549\nsamples = 1756\nvalue = [1745, 11]"] ;
1104 -> 1105 ;
1106 [label="X[302] <= 0.5\nentropy = 0.0391\nsamples = 1671\nvalue = [1664, 7]"] ;
1105 -> 1106 ;
1107 [label="X[234] <= 0.5\nentropy = 0.0228\nsamples = 1351\nvalue = [1348, 3]"] ;
1106 -> 1107 ;
1108 [label="X[257] <= 0.5\nentropy = 0.0162\nsamples = 1333\nvalue = [1331, 2]"] ;
1107 -> 1108 ;
1109 [label="X[21] <= 0.5\nentropy = 0.009\nsamples = 1314\nvalue = [1313, 1]"] ;
1108 -> 1109 ;
1110 [label="entropy = 0.0\nsamples = 1051\nvalue = [1051, 0]"] ;
1109 -> 1110 ;
1111 [label="X[9] <= 1.5\nentropy = 0.036\nsamples = 263\nvalue = [262, 1]"] ;
1109 -> 1111 ;
1112 [label="entropy = 0.0\nsamples = 202\nvalue = [202, 0]"] ;
1111 -> 1112 ;
1113 [label="X[290] <= 0.5\nentropy = 0.1207\nsamples = 61\nvalue = [60, 1]"] ;
1111 -> 1113 ;
1114 [label="entropy = 0.0\nsamples = 48\nvalue = [48, 0]"] ;
1113 -> 1114 ;
1115 [label="X[7] <= 1753.7251\nentropy = 0.3912\nsamples = 13\nvalue = [12, 1]"] ;
1113 -> 1115 ;
1116 [label="entropy = 0.0\nsamples = 8\nvalue = [8, 0]"] ;
1115 -> 1116 ;
1117 [label="X[7] <= 1805.7251\nentropy = 0.7219\nsamples = 5\nvalue = [4, 1]"] ;
1115 -> 1117 ;
1118 [label="entropy = 0.0\nsamples = 1\nvalue = [0, 1]"] ;
1117 -> 1118 ;
1119 [label="entropy = 0.0\nsamples = 4\nvalue = [4, 0]"] ;
1117 -> 1119 ;
1120 [label="X[11] <= 41.5\nentropy = 0.2975\nsamples = 19\nvalue = [18, 1]"] ;
1108 -> 1120 ;
1121 [label="entropy = 0.0\nsamples = 16\nvalue = [16, 0]"] ;
1120 -> 1121 ;
1122 [label="X[2] <= 30.5\nentropy = 0.9183\nsamples = 3\nvalue = [2, 1]"] ;
1120 -> 1122 ;
1123 [label="entropy = 0.0\nsamples = 1\nvalue = [0, 1]"] ;
1122 -> 1123 ;
1124 [label="entropy = 0.0\nsamples = 2\nvalue = [2, 0]"] ;
1122 -> 1124 ;
1125 [label="X[202] <= 0.5\nentropy = 0.3095\nsamples = 18\nvalue = [17, 1]"] ;
1107 -> 1125 ;
1126 [label="entropy = 0.0\nsamples = 17\nvalue = [17, 0]"] ;
1125 -> 1126 ;
1127 [label="entropy = 0.0\nsamples = 1\nvalue = [0, 1]"] ;
1125 -> 1127 ;
1128 [label="X[305] <= 0.5\nentropy = 0.0969\nsamples = 320\nvalue = [316, 4]"] ;
1106 -> 1128 ;
1129 [label="X[0] <= 46.5\nentropy = 0.0776\nsamples = 315\nvalue = [312, 3]"] ;
1128 -> 1129 ;
1130 [label="entropy = 0.0\nsamples = 229\nvalue = [229, 0]"] ;
1129 -> 1130 ;
1131 [label="X[7] <= 1794.5549\nentropy = 0.2183\nsamples = 86\nvalue = [83, 3]"] ;
1129 -> 1131 ;
1132 [label="entropy = 0.0\nsamples = 46\nvalue = [46, 0]"] ;
1131 -> 1132 ;
1133 [label="X[7] <= 1849.155\nentropy = 0.3843\nsamples = 40\nvalue = [37, 3]"] ;
1131 -> 1133 ;
1134 [label="entropy = 0.0\nsamples = 1\nvalue = [0, 1]"] ;
1133 -> 1134 ;
1135 [label="X[231] <= 0.5\nentropy = 0.2918\nsamples = 39\nvalue = [37, 2]"] ;
1133 -> 1135 ;
1136 [label="entropy = 0.0\nsamples = 31\nvalue = [31, 0]"] ;
1135 -> 1136 ;
1137 [label="X[8] <= 2.0\nentropy = 0.8113\nsamples = 8\nvalue = [6, 2]"] ;
1135 -> 1137 ;
1138 [label="entropy = 0.0\nsamples = 2\nvalue = [0, 2]"] ;
1137 -> 1138 ;
1139 [label="entropy = 0.0\nsamples = 6\nvalue = [6, 0]"] ;
1137 -> 1139 ;
1140 [label="X[0] <= 20.5\nentropy = 0.7219\nsamples = 5\nvalue = [4, 1]"] ;
1128 -> 1140 ;
1141 [label="entropy = 0.0\nsamples = 1\nvalue = [0, 1]"] ;
1140 -> 1141 ;
1142 [label="entropy = 0.0\nsamples = 4\nvalue = [4, 0]"] ;
1140 -> 1142 ;
1143 [label="X[115] <= 0.5\nentropy = 0.2738\nsamples = 85\nvalue = [81, 4]"] ;
1105 -> 1143 ;
1144 [label="X[294] <= 0.5\nentropy = 0.2223\nsamples = 84\nvalue = [81, 3]"] ;
1143 -> 1144 ;
1145 [label="entropy = 0.0\nsamples = 60\nvalue = [60, 0]"] ;
1144 -> 1145 ;
1146 [label="X[12] <= 94.5\nentropy = 0.5436\nsamples = 24\nvalue = [21, 3]"] ;
1144 -> 1146 ;
1147 [label="X[277] <= 0.5\nentropy = 0.9183\nsamples = 9\nvalue = [6, 3]"] ;
1146 -> 1147 ;
1148 [label="X[11] <= 42.0\nentropy = 0.5917\nsamples = 7\nvalue = [6, 1]"] ;
1147 -> 1148 ;
1149 [label="entropy = 0.0\nsamples = 6\nvalue = [6, 0]"] ;
1148 -> 1149 ;
1150 [label="entropy = 0.0\nsamples = 1\nvalue = [0, 1]"] ;
1148 -> 1150 ;
1151 [label="entropy = 0.0\nsamples = 2\nvalue = [0, 2]"] ;
1147 -> 1151 ;
1152 [label="entropy = 0.0\nsamples = 15\nvalue = [15, 0]"] ;
1146 -> 1152 ;
1153 [label="entropy = 0.0\nsamples = 1\nvalue = [0, 1]"] ;
1143 -> 1153 ;
1154 [label="X[4] <= 4973.5\nentropy = 0.684\nsamples = 11\nvalue = [9, 2]"] ;
1104 -> 1154 ;
1155 [label="entropy = 0.0\nsamples = 2\nvalue = [0, 2]"] ;
1154 -> 1155 ;
1156 [label="entropy = 0.0\nsamples = 9\nvalue = [9, 0]"] ;
1154 -> 1156 ;
1157 [label="X[1] <= 39.5\nentropy = 0.684\nsamples = 11\nvalue = [9, 2]"] ;
1103 -> 1157 ;
1158 [label="entropy = 0.0\nsamples = 8\nvalue = [8, 0]"] ;
1157 -> 1158 ;
1159 [label="X[8] <= 2.0\nentropy = 0.9183\nsamples = 3\nvalue = [1, 2]"] ;
1157 -> 1159 ;
1160 [label="entropy = 0.0\nsamples = 1\nvalue = [1, 0]"] ;
1159 -> 1160 ;
1161 [label="entropy = 0.0\nsamples = 2\nvalue = [0, 2]"] ;
1159 -> 1161 ;
1162 [label="X[0] <= 40.5\nentropy = 0.1952\nsamples = 2951\nvalue = [2862, 89]"] ;
1102 -> 1162 ;
1163 [label="X[7] <= 326.8\nentropy = 0.1235\nsamples = 1601\nvalue = [1574, 27]"] ;
1162 -> 1163 ;
1164 [label="X[176] <= 0.5\nentropy = 0.4587\nsamples = 62\nvalue = [56, 6]"] ;
1163 -> 1164 ;
1165 [label="entropy = 0.0\nsamples = 20\nvalue = [20, 0]"] ;
1164 -> 1165 ;
1166 [label="X[308] <= 0.5\nentropy = 0.5917\nsamples = 42\nvalue = [36, 6]"] ;
1164 -> 1166 ;
1167 [label="entropy = 0.0\nsamples = 15\nvalue = [15, 0]"] ;
1166 -> 1167 ;
1168 [label="X[279] <= 0.5\nentropy = 0.7642\nsamples = 27\nvalue = [21, 6]"] ;
1166 -> 1168 ;
1169 [label="X[275] <= 0.5\nentropy = 0.6343\nsamples = 25\nvalue = [21, 4]"] ;
1168 -> 1169 ;
1170 [label="X[262] <= 0.5\nentropy = 0.5436\nsamples = 24\nvalue = [21, 3]"] ;
1169 -> 1170 ;
1171 [label="X[22] <= 0.5\nentropy = 0.4262\nsamples = 23\nvalue = [21, 2]"] ;
1170 -> 1171 ;
1172 [label="X[230] <= 0.5\nentropy = 0.7219\nsamples = 10\nvalue = [8, 2]"] ;
1171 -> 1172 ;
1173 [label="entropy = 0.0\nsamples = 1\nvalue = [0, 1]"] ;
1172 -> 1173 ;
1174 [label="X[7] <= 320.355\nentropy = 0.5033\nsamples = 9\nvalue = [8, 1]"] ;
1172 -> 1174 ;
1175 [label="entropy = 0.0\nsamples = 7\nvalue = [7, 0]"] ;
1174 -> 1175 ;
1176 [label="X[249] <= 0.5\nentropy = 1.0\nsamples = 2\nvalue = [1, 1]"] ;
1174 -> 1176 ;
1177 [label="entropy = 0.0\nsamples = 1\nvalue = [0, 1]"] ;
1176 -> 1177 ;
1178 [label="entropy = 0.0\nsamples = 1\nvalue = [1, 0]"] ;
1176 -> 1178 ;
1179 [label="entropy = 0.0\nsamples = 13\nvalue = [13, 0]"] ;
1171 -> 1179 ;
1180 [label="entropy = 0.0\nsamples = 1\nvalue = [0, 1]"] ;
1170 -> 1180 ;
1181 [label="entropy = 0.0\nsamples = 1\nvalue = [0, 1]"] ;
1169 -> 1181 ;
1182 [label="entropy = 0.0\nsamples = 2\nvalue = [0, 2]"] ;
1168 -> 1182 ;
1183 [label="X[11] <= 29.5\nentropy = 0.1041\nsamples = 1539\nvalue = [1518, 21]"] ;
1163 -> 1183 ;
1184 [label="X[23] <= 0.5\nentropy = 0.0208\nsamples = 499\nvalue = [498, 1]"] ;
1183 -> 1184 ;
1185 [label="entropy = 0.0\nsamples = 495\nvalue = [495, 0]"] ;
1184 -> 1185 ;
1186 [label="X[214] <= 0.5\nentropy = 0.8113\nsamples = 4\nvalue = [3, 1]"] ;
1184 -> 1186 ;
1187 [label="entropy = 0.0\nsamples = 1\nvalue = [0, 1]"] ;
1186 -> 1187 ;
1188 [label="entropy = 0.0\nsamples = 3\nvalue = [3, 0]"] ;
1186 -> 1188 ;
1189 [label="X[3] <= 2350.0\nentropy = 0.1371\nsamples = 1040\nvalue = [1020, 20]"] ;
1183 -> 1189 ;
1190 [label="X[0] <= 25.5\nentropy = 0.1265\nsamples = 1035\nvalue = [1017, 18]"] ;
1189 -> 1190 ;
1191 [label="entropy = 0.0\nsamples = 240\nvalue = [240, 0]"] ;
1190 -> 1191 ;
1192 [label="X[6] <= 49.0\nentropy = 0.156\nsamples = 795\nvalue = [777, 18]"] ;
1190 -> 1192 ;
1193 [label="X[59] <= 0.5\nentropy = 0.143\nsamples = 789\nvalue = [773, 16]"] ;
1192 -> 1193 ;
1194 [label="X[250] <= 0.5\nentropy = 0.136\nsamples = 788\nvalue = [773, 15]"] ;
1193 -> 1194 ;
1195 [label="X[9] <= 0.5\nentropy = 0.1953\nsamples = 464\nvalue = [450, 14]"] ;
1194 -> 1195 ;
1196 [label="X[7] <= 3532.78\nentropy = 0.277\nsamples = 272\nvalue = [259, 13]"] ;
1195 -> 1196 ;
1197 [label="X[8] <= 3.5\nentropy = 0.2177\nsamples = 259\nvalue = [250, 9]"] ;
1196 -> 1197 ;
1198 [label="X[11] <= 41.5\nentropy = 0.1257\nsamples = 174\nvalue = [171, 3]"] ;
1197 -> 1198 ;
1199 [label="X[261] <= 0.5\nentropy = 0.0584\nsamples = 148\nvalue = [147, 1]"] ;
1198 -> 1199 ;
